159 200
<s> -0.0002357041 0.0001441219 0.0024449371 0.0045096385 -0.004642754 -0.0036162946 0.0032984922 0.0045274394 -0.00252701 -0.001846567 0.0036745032 -0.0007436495 -0.0022570575 0.0033139903 -0.0024487746 -0.0009440212 0.0014689781 0.00052507094 -0.004135579 -0.004798102 0.0036629993 0.002447065 0.0033993723 0.00032089392 0.0031719168 -0.0017482663 -0.0005197339 0.0027940902 -0.003832248 -0.0020081762 -0.003731868 -0.000434575 0.00477988 -0.0036563475 -0.00123523 -0.0008619277 0.0040770643 -0.0030028294 -6.955492e-06 -0.0024218785 -0.0048179287 0.0024806396 -0.0043681287 -0.0022016007 9.345891e-05 -0.00019428426 -0.0038434472 0.0047134967 0.0025547945 0.0046465015 -0.0040068277 0.002280876 -0.002040639 0.00039742206 0.0043150526 -0.002227626 0.0022875685 -0.0033654151 -0.0018666877 0.0047284467 -0.00078414986 0.0001238564 -0.0020513106 -0.0038738546 -0.000853921 0.0012148068 -0.0004633127 0.002831315 -0.0014443436 0.0011529381 0.0026725207 0.004131902 -0.0006642974 -0.0045608557 0.0022421184 0.00034063455 0.0037339337 -0.00043055476 -0.001407668 -0.0043300674 -0.00041988716 0.0014238373 0.0025926589 0.0036033113 -0.0028997774 0.0009003876 0.003035227 -0.0023576897 -0.0015359856 0.0033378566 0.00084724184 0.00016302802 0.0017250216 0.00011796699 0.0048462045 0.0025812127 -0.0044681486 -0.0035328653 0.00049118797 0.0031871991 -0.0043658274 0.0018412601 0.0026090222 0.0028039536 0.0036826155 -0.0030713594 0.000571277 0.0030741037 -0.0014593748 -0.003111484 -0.00024836918 -0.0042863972 -0.00282462 0.0034813771 0.0016294679 0.0035826913 0.003408854 0.0036629254 -0.0019542212 -0.00034963628 0.0011517763 -0.0021399641 0.0042272047 -0.0049724197 0.0033780118 0.0014795066 -0.0025517198 0.0021485605 -0.0009572049 0.0032848578 0.0049563996 -0.0021086256 -0.00037792895 -0.0028927466 0.001879215 0.001430236 0.003338226 0.0029311057 0.0046766554 0.0045066928 0.003938321 -0.0035420845 -0.0046027238 -0.00018583096 -0.0015272519 0.0039246627 0.0029424052 -0.00076170824 0.00072946615 0.00085984997 0.0039785686 -0.004820332 -0.00011316068 0.0017224132 -0.000573072 0.00420638 0.0045696595 0.0032858881 -0.00036641402 0.003919641 -0.004228008 0.0015771859 -0.0022964568 -0.0025860402 0.0017527209 0.0026835117 0.0039505893 -0.0029087672 0.0035961655 0.0033600645 -0.0019098549 -0.0043556863 0.0027004788 0.00320557 -0.00039914763 -0.0033209505 -0.0036147067 -0.0011890655 0.0025231678 -0.001823482 -0.004673461 0.0019335309 0.0023783485 -0.003193086 0.00061949645 -0.0009427593 3.40231e-05 -0.0048837336 0.0014412905 -0.0023902527 0.00059683336 -0.00077780895 0.0010935167 -0.0039790184 -0.0012943668 0.0013664534 0.002795977 -0.0013060468 -0.0047469493 0.0021528597
</s> 8.682335e-05 0.001541572 -0.0034978339 -0.0006565408 0.0038396653 0.0035926737 -0.0017791074 0.0013647538 -0.0041518626 0.003143241 -0.0023334504 -0.001526149 0.0046367063 0.00047967318 0.0037139424 -0.0030749107 0.0026275446 0.004977779 -0.004230363 -0.002675469 -0.0035283796 -0.0025455616 -0.0018372464 -0.004336565 0.0040182797 -0.0024529418 0.0041585173 0.0025510571 -0.003381507 0.0019280468 0.002798902 -0.0036903091 -0.0037282028 -0.0012263325 -0.0043736347 -0.00070780574 -0.00016257676 0.0016114756 0.0007224627 -0.0005132491 -0.0028151807 0.00081909104 -0.000443053 0.0033735496 0.002094399 0.002201817 0.0006866998 -0.001447438 -0.0021177968 -0.00045270976 0.0007812234 -0.0012686613 -0.003482589 -0.0038819704 -0.00451375 -0.0029503708 -0.000885523 -0.0020924713 -0.003362269 -0.0018244693 0.0021402792 -0.0019092312 0.004240776 0.000740837 -0.0037189308 0.00465029 0.0038370213 0.0028309214 -0.0035141734 0.0029238039 0.0019859243 0.0025362938 0.0022023548 0.0010095135 -0.0015099351 0.0042544217 0.004788672 0.001879138 -0.0015247558 6.0751365e-05 0.0006134552 -0.0042257253 -0.0042450726 3.9595757e-06 0.0005329226 -0.0029014633 -0.0023831113 -0.0036381863 0.004157017 -1.2804375e-05 -0.0021755223 0.0029345583 0.004568819 -0.0020464496 0.0040213405 0.0027440672 0.002925413 0.00024340111 0.004155237 -0.0035393094 -0.00416862 0.0046540233 -9.459199e-05 -0.0010706497 0.0022690184 -0.002050055 0.0013799394 0.0035064179 0.002984364 -0.0037589376 0.00463148 0.0022540444 0.00196751 -0.0031977065 0.004191757 -0.0011099833 0.004448758 -0.0028030383 -0.0041322387 0.0032997644 0.0008199534 -0.00094793295 0.004808615 0.004686134 -0.004923759 0.001250457 0.0029713463 0.0018745154 0.0009180733 0.00014802937 0.00027729044 -0.0018236897 -0.003645481 -0.001093676 0.0019382413 0.0044550337 0.0044804425 -0.0031207476 -0.0048495526 0.0047682943 0.0017031727 0.002497836 0.0031359196 -0.0014112829 0.0036892698 0.001406518 0.0014153244 -0.0011797621 -0.0016210163 -0.0012066137 0.0022250046 -6.0981856e-05 -0.004789865 -0.004873841 -0.0031784077 -3.2665503e-05 0.0010919982 0.0047279852 0.0027808584 -0.0020665352 0.00015606772 0.0024289554 0.0038717426 -0.0006169258 0.002118095 -0.0029322938 -0.00030726034 0.004018538 -0.0013011433 -0.00476824 0.0028352411 -0.0019931563 -0.0006229329 0.004935141 -0.0011450404 -0.0023502437 -0.0027181283 0.003557698 -0.0028801411 0.001049659 -0.0026296917 0.0030826675 0.002098348 0.0013339445 -0.00071737845 -0.0012734517 0.0045281174 0.0026419442 -0.0009874078 -0.0047384617 -0.003636425 -0.0005326941 -0.00041748708 -0.0013149346 0.004916843 -0.0001809003 0.0030766 -0.0038444982 -0.0012274721 -0.0028795477
heart -0.0035304052 0.00062785903 -0.003646583 -0.0010883631 0.0018517108 0.0028691008 0.00066347537 0.0011157679 -0.0020765944 0.0036766527 -0.0031579703 0.00232906 -0.004101188 0.0010369108 -0.002489916 -0.0021485016 -0.0015389537 0.0028332546 0.002895687 -0.0025605592 0.00040731084 -0.0043273247 0.003947761 0.00455041 -0.0013409697 0.00037149683 0.00032173927 0.0026626263 -0.0043711364 0.0002731835 0.0034770516 0.0011364308 0.0005934082 -0.0046590846 0.0041757445 -0.0030472141 -0.0014841381 0.0017036364 -0.0004118339 0.0006302462 0.00088217086 -0.0034641041 -0.0048549254 0.0045374767 0.0031825942 -0.0034831378 0.0016909955 5.0160347e-06 0.002428416 -0.0035365648 0.0020575696 0.0021671974 0.0050182273 -0.0022258507 -0.00063792476 -0.0036619455 -0.004834208 -0.00449472 -0.00061168754 -0.0032311545 0.00239577 -0.0031162193 0.001296853 0.00031539064 -0.0017921324 -0.0004966881 0.0050035203 0.0046411324 -0.0023046515 0.0045300312 -0.0028570686 0.0029485666 -0.0015109978 0.0017562567 0.0015632662 0.0034814042 -0.001178159 0.0043332437 0.0037227692 -0.004744408 -0.0039978973 -0.00381988 0.0013670267 -0.0013159269 -0.0035243637 -0.00408915 0.0041315695 0.0010271391 -0.004645624 -0.0024352379 0.0016175053 -0.002286903 0.0026116571 -0.002099472 0.0013579812 -0.003955387 0.003107883 0.0024178838 0.00043179636 0.0015087938 -0.004397167 0.0010675475 -0.0004249543 -0.004716751 -0.0047648083 -0.00070480263 0.0022640282 0.0018844944 -0.0032875503 -0.0034632087 -0.0025161433 -0.0012055285 -0.0036414876 -0.0048540854 -0.0013915311 -0.0042116176 -0.0030117657 -0.0029480401 -0.0012197816 -0.000924157 -0.00446108 -0.00026429334 0.004130833 0.0037911825 -0.0036276677 -0.0018150994 0.0014615444 -0.004792372 0.0006668875 0.003214543 0.0028385709 -0.0043448103 -0.0023210074 -0.004091783 1.561505e-05 0.0046607624 0.0028986474 0.0024409113 0.0024506429 -0.0017296848 0.0047821742 -0.003755667 -0.003654893 -0.0011486838 -0.00033308554 -0.00159063 -0.0003140585 0.0037342368 -0.00036842257 -0.0008257349 0.0014337017 -0.0042556664 0.0039387983 0.0042597377 -0.004895803 0.0012332235 0.00499361 -0.003784719 -0.003503168 -0.003794598 0.004241171 -0.0003535172 0.004605866 -0.0041426793 0.0018471692 0.0013165164 0.00039653413 0.0011640735 -0.003781894 -0.004636879 0.0011130107 0.0030560994 0.00398661 0.0028366516 -0.00039897315 0.004157621 -0.0046982663 0.0017590951 0.00010447548 0.0019308954 0.0037071384 -0.003372286 0.0027342024 -0.0047405306 -0.0003687574 -0.004264206 -0.0024944588 0.0046795667 -0.0008372558 0.0014566598 0.0046042413 0.004481937 -0.00411114 -0.0015542412 0.005012043 0.0025854576 -0.00066934613 -0.0044423584 0.0015082762 -0.0034219
gold 0.0041036583 -0.0022304798 -0.00059316185 0.0005598507 -7.786915e-05 0.00051575975 0.003096375 6.3295374e-06 -0.001664079 -0.0007364757 0.0029602489 0.0007963564 -0.0003568363 0.0046841404 -0.0024845437 -0.00042399977 0.0046077105 0.0033931816 0.0007388814 -0.0045469045 0.0005737627 -0.0012219328 0.0047023515 0.0005101806 0.0007321368 0.001196473 -0.000975206 -0.0025655997 4.0216e-05 -0.0010413165 0.0033238418 0.004484429 -0.00035765738 0.0015021537 -0.0030933903 0.0009459491 -0.0034291432 -0.0043680174 -0.0029898896 -0.004524523 0.0036128894 -0.0029205084 0.0041340915 -0.0035965585 0.0017968169 0.004821974 -0.0038998337 -0.005051228 -0.0021096463 -0.0013096554 -8.120909e-05 -0.0043937145 -0.004298201 0.0013868342 -0.0040212795 -0.0044979127 -0.0011412408 -0.0042915326 -0.0036287832 -0.004176954 -0.0001848976 -0.0023039698 0.0033450823 0.0007355892 -0.0017395383 0.003033549 -0.0029974487 -0.0022306922 -0.0036620067 -0.0021280653 -0.0009368246 0.0032399169 -0.0013403968 0.0025204779 0.0035239682 -0.003648431 0.0022649178 0.003024147 -0.001589211 0.0033165715 0.0031084348 -0.003202797 -0.0034742048 0.0013464106 -0.0008731616 -0.003026827 0.004749106 -0.0025298025 -0.003266534 -8.465982e-05 -0.0013043381 0.0003006664 -0.0017840202 -0.00016366102 -0.00031725975 0.0004763779 0.004079664 -0.0028879067 -0.00079332246 0.0027948264 0.004062369 -0.0022202486 0.004531948 0.0040924386 -0.0022897832 0.00013704627 0.0021650086 -0.0018865298 -0.002822187 -0.0032544774 -0.00036263213 -0.00022563129 0.002214338 -0.0012954408 -0.00010384854 0.001197846 0.0024138743 -0.00013135478 -0.0032331422 -0.0047091884 1.3589989e-05 0.0034305928 0.0007716106 -0.0045615486 -0.0039803097 0.003280367 -0.0019626876 0.0031060202 -0.0034166584 0.0041961833 -0.0032759549 0.001700986 -0.000565057 -0.0033995584 -0.0016664859 -0.0005265997 -0.0028210008 -0.00070911006 -0.0038732023 0.0012096653 0.0045528132 -0.0012628834 -0.00052748335 0.0017369703 0.004380286 -0.0029387597 -0.0034464663 -0.001465603 0.0045836573 0.0004153952 -0.004247694 -0.00080130494 0.004733218 -0.0037920694 -0.00279751 0.0046840133 -0.00442594 0.0019427725 0.00032741466 0.0033596805 0.0041654785 -0.0014535771 -0.001954841 0.004388046 0.0010404611 0.0031219884 -0.0046748375 0.004778679 -0.00076722715 -0.0029844039 0.00144045 -0.00025587063 0.002352816 -0.0011838417 -0.0020998071 0.0011649369 0.004133783 -0.0024897694 0.0012973166 -0.003974945 -0.0033813517 -0.00020452643 -0.0044355905 0.0014109683 0.00084936304 -0.0010891914 0.002546047 0.0048847245 0.004271001 -0.0009693173 0.0010518125 -0.0020044995 -0.0041437484 0.0031117422 -0.00091817183 -0.00034342025 -0.000776595 -0.0023781632 0.002056283 -0.0022044175
snuff -0.0047767595 0.0044737244 0.0020532757 0.0046407757 0.0033254575 0.0014445016 0.0049141403 -0.0022056145 -0.003415246 0.002109302 0.0018751879 -0.0028179975 0.0048539103 -0.0017543676 0.0047611487 0.00040519284 -0.003167468 -0.0009933924 -0.0037037337 -0.0015427166 0.00051978155 0.00470924 0.00470179 -0.0033269397 0.0017437676 0.0011358404 -0.0012633227 -0.0046383333 0.00048570984 -0.0040716794 0.0031540971 -0.0029036694 0.002767528 0.004913009 -9.396259e-05 0.0022872132 -0.0008869614 0.0036614612 0.001949293 -0.0045246966 -0.0012084544 0.0018031683 -4.4481327e-05 -0.00059294474 -0.0004813056 -0.00081566256 0.00029322988 0.002054354 -0.0021070193 -0.0019021607 -1.2123945e-05 0.00014968305 -8.673379e-05 -0.0023960106 0.0021866837 -0.0010780047 0.0010600925 0.00035494467 0.0029483372 -0.003410164 -0.003414938 -0.0022388771 0.0047346423 -0.00081188034 -0.0047480552 -0.000288922 -0.0022125768 0.0030422956 -0.004808194 0.0014334002 -0.0046481737 0.00061997224 0.003009608 0.0037155321 -0.003769288 -0.0030049707 -0.0034321693 -0.003968323 -0.004792849 -0.001052784 -0.0004027045 -0.0036267068 0.003348431 0.0005840656 0.0029115796 0.00073689123 0.0003918591 -0.003686597 -0.0010919808 0.0021204366 -0.0025328405 0.00059228746 0.001433798 -0.00075415266 0.004977902 0.0042031966 0.0012150282 0.0035709736 0.0029462783 -0.0027833604 -0.0025852632 -0.0033319718 -0.0038625798 0.004154368 -0.0010204982 -0.0034450693 -0.0020542294 0.002593662 -0.0014689076 -0.0018711786 0.00079655054 -0.0014245184 -0.0008072185 0.00051741133 -0.0015005546 0.0042278017 0.0019469996 -0.0050173244 0.0030936608 -0.0034013249 0.00039159486 0.0022489035 -0.0025450238 -0.0010812788 0.004028893 -0.002126413 -0.0038298697 0.004623452 -0.0011012017 -0.0023797804 0.0042783334 0.0021658293 0.0021430005 0.004632419 -0.0042287703 0.0026425645 0.0009854523 0.0020613684 0.00081319007 0.0021865948 0.002244876 0.0030239606 -0.0016275395 -0.0022941318 -0.00019823489 0.0012771639 -0.0016430459 0.0030337442 0.002087626 0.003867669 0.001313216 0.0040220027 -0.00068420335 0.00402464 0.0017989702 -0.0040097055 -0.0019465403 -0.0012619984 0.0024632423 -0.00042492818 -0.0014108393 0.003914474 0.0046814 -0.0008396207 -0.002580299 -0.002359413 -0.0024146966 -0.004797204 0.00064714 -0.0021085604 0.0012418303 0.0027880971 -0.0020231062 -0.004819162 0.0007658881 -0.003324694 0.0012492858 -0.0018940512 0.0035252734 0.000319617 0.0017737132 -0.0013722657 -0.0008980656 0.0038284957 0.00072211213 -0.0029115991 -0.0039043343 0.0006194899 0.0032557056 0.0027818242 -0.0044792923 0.004300795 0.0020243318 0.0037196162 0.0048943097 -0.0036489812 -0.0044594393 0.0028826816 0.004727527 0.0017272586
felt 0.0035700123 -0.0007713567 0.0038947738 -0.004715984 -0.0040148823 -0.0033833582 -0.0019612585 0.0025406745 -0.0019297427 -0.0041084546 0.004186896 -0.0018703565 0.004303328 -0.002428013 0.001971828 0.0023932261 0.0012323713 -0.0014024347 0.0014386013 -0.0041786092 -0.0013532504 -0.0013666205 0.0036477186 -0.0018073597 -0.0033191128 0.0021637946 -0.00030241738 -0.0018684813 0.0033448522 0.0019097674 -0.0019315829 0.00037581328 0.0045677926 0.0038655363 0.0030834312 0.002390234 0.0012199262 -0.0009447541 -0.0032107108 -0.0001765402 -0.00081495 -0.0003486047 -0.0030994576 0.0037446406 -0.0031961645 -0.0036532872 -0.0013921164 -0.0008387052 -0.0037374832 0.0003727368 -0.0026069458 -0.00060301146 -0.0036565228 0.0009635315 0.001670175 -3.1370906e-05 -0.0027140842 -0.0008328236 0.003437682 0.0018894373 -0.0044331867 -0.0017329957 0.0012062404 0.0010341157 -0.00481975 0.0022695009 -0.004322687 -0.003600155 0.001662139 -0.0017422754 0.0017599202 0.004393706 -0.0016917426 0.0046563162 0.00091912365 0.004988313 0.0028460356 -0.0045739473 -0.0017446377 0.0032830448 0.0027901211 0.004342341 0.0033435118 0.0040740864 -0.0049476777 0.0021158834 -0.002533486 0.0017785032 0.0030422583 0.0021315801 0.003818807 0.00081210997 -0.0006516231 0.0029254619 -0.0027843674 9.877758e-05 0.004695926 -0.0027570007 0.0019312797 -0.004087127 0.004832761 0.0041038888 0.0006696474 0.0024930823 0.00066718843 -0.003234866 -0.00068631844 0.0032368843 -0.0023362136 -0.0019958524 0.0024207202 0.0012702292 -0.00092822436 -0.0015298456 0.0029941935 -0.0028715797 -0.0015964936 -0.0033390606 -0.0021359765 -0.0043539624 -0.0022267012 -0.004108619 0.00074877025 -0.0043533733 -0.0049989247 -0.0040657534 -0.0034833502 0.003324176 0.001827152 0.00013311915 -0.0015183898 -0.0036550448 0.00021502029 0.00022894693 7.2384726e-05 0.00046054652 0.00027182454 -0.00014787762 -0.0041191503 -0.003040888 -0.004225388 -0.0007252861 0.0009098758 0.0037172176 -0.00095415616 -0.0011557218 0.004717344 5.453121e-05 -0.0012289156 0.0042403988 0.001416842 -0.0027464142 0.003327371 0.0022163168 -0.0036053027 -0.00017001103 0.00051310053 0.0028984833 -0.0008774694 -0.0013425557 0.0008813431 0.00041347282 0.000613634 -0.0013791795 -0.0030176179 0.0036673606 0.0038540943 0.0041625984 -0.004405539 0.0013749205 -0.0018396 0.0048065153 0.0014598205 0.0023119852 0.0011771884 0.0033457743 -0.002948529 0.003999794 -0.0012315959 -0.0022889986 -0.0010505635 0.0048887203 -0.0034987044 -0.0010798352 0.003540185 5.6299967e-05 -0.0031590567 -0.0031948197 0.0045704716 0.0032107544 0.0024759676 -0.0016336866 -0.004644106 0.0018468632 0.0036543768 -0.0027805646 -0.003796467 -0.0015950657 -0.002443562 -0.0012547872
point -0.0009620608 -0.0026196502 0.004686561 -0.004639339 0.0022552994 0.0026536088 -0.0006783516 0.004523001 0.0049373712 -0.0027174745 -0.003024076 -0.0033728636 -0.00394574 -0.0014970943 -0.002797281 -0.0041813734 0.00038597058 0.0015178338 0.003192182 -0.001336557 -0.0022288423 0.0005820208 0.00021162705 0.004019861 8.427648e-05 0.0035926166 -0.0041429955 0.0041923802 -0.0009821363 0.0043270052 -0.0037784078 0.0009107211 0.00053182384 2.203495e-05 -0.002572286 -0.0045782924 -0.0036036596 -0.0039829784 0.0009607596 0.00024091604 -0.0008941412 0.0035704114 -0.0012362163 -0.00068610517 -0.0044041607 -0.004979801 0.0044622566 -0.0029212153 -0.0031470223 0.0026020252 0.0033569983 -0.0034049351 0.0004927104 -0.0030026415 0.00084723625 -0.002133654 -0.0017114502 0.0011126543 0.0042814757 0.0033839736 -0.0048401263 -0.0028481365 0.0039610695 0.0009886873 -0.0021688754 0.00028509524 0.00474997 -0.0005533132 -0.0047499747 0.0008071284 0.0030971854 0.0031396584 0.0020734202 -0.0028026754 -0.00015000498 -1.0445749e-05 0.0022900451 -0.004041189 -0.0040433495 0.00015383947 -0.004293216 0.0029047667 -0.00025988097 0.0050089643 -0.0027112195 -0.00024921307 0.0038843672 -0.0020262506 -0.0025121053 0.0007785407 0.0013303929 -0.0012440503 0.0032148294 -0.00383767 0.0017214136 0.00026017826 0.004349923 0.002965089 0.0034193085 0.0039032563 -0.004774452 0.004772365 -0.0038841073 -0.0013612289 -0.0024598166 -0.002476955 -0.003996284 -0.0038759504 -0.0022938936 -0.0006412755 -0.0025864567 0.003038511 -0.0047384175 -0.0026846272 0.004710506 0.0034959225 0.0038440851 0.002076556 0.00021986589 -0.0030205043 0.002998288 0.0013853371 0.0038563223 0.003170399 0.003955575 0.004337282 -0.004989732 -0.0034019686 0.0006424911 0.003179641 0.0036862164 0.0027818053 0.0037806404 -0.0025692186 0.0032726591 -0.0020371203 -0.004568188 0.004526858 0.0006013308 -0.0014197397 -0.0012440075 -0.0021414654 0.002404394 0.0021983616 -0.0013102399 -0.0036840935 -0.001789348 -0.00015325275 0.0030269523 -0.001449618 -1.4711502e-05 0.00040273517 -0.003546094 0.0010214825 -0.00075982965 0.0014007088 0.0024447055 -0.0006623239 -0.001408077 0.0039022963 0.0025423153 0.0033372384 0.002285668 0.0043215267 0.0037336287 -0.00055147737 0.0044010826 0.0022825573 0.002661599 -0.000672012 -0.0010468555 -0.0022188555 -0.0042738 0.0014955851 0.0044449046 0.004457176 -0.0009993747 0.003069517 0.0018923824 -0.0021525125 0.0010034296 -0.0026959267 0.004070212 0.00272572 0.0016014004 0.0020924055 0.0043443153 0.003675929 -0.00037954567 -0.0035445448 0.0042106593 0.0036064566 0.0008899223 -0.00068408175 -0.002916083 -0.0022422813 0.0043575824 -0.0016299614 -0.0031529584 0.0049099256
took 0.0038633198 0.004546023 0.00054287014 -0.004160533 0.0041925428 -0.0018837635 0.0029231424 0.002207314 0.0048354873 -0.0046297084 0.0046087727 -0.00465078 -0.0034382662 -0.004535571 -0.0028011415 0.0036865042 0.0045654112 -0.0016683133 0.0018454349 -0.0018562196 0.0039385883 0.0028811267 3.3043587e-05 -0.0018865134 -0.0036109255 0.0023713778 0.0006934365 -0.0013404085 0.003883747 -0.002052937 -0.004567963 -0.0011188227 6.3187734e-05 -0.003321571 -0.0027652036 -0.0042101266 0.004649109 0.0036937087 -0.0001708198 0.0036760448 0.0039922935 -0.00041135654 0.0033045132 0.001914005 0.00262104 0.003624285 -0.002375078 -0.0011347358 0.0004780737 0.002125597 0.0016832525 0.002564046 0.0022891941 -0.004223973 -0.0015805637 -0.003623985 0.0048560393 0.0025101278 4.238251e-05 0.0020691075 -0.0038468225 -0.0031813057 0.0015487621 0.0032606216 0.001912862 0.0030007141 -0.0009850883 -0.001645359 5.901652e-05 -0.0016023844 -0.0027704595 -0.0038932243 0.0033027176 -0.0005091006 -0.0008912417 -0.0038653226 0.0046758056 0.0004209865 0.00083348266 0.0012860689 -0.003693553 0.00081377075 0.001467396 -0.0042653414 0.002465465 0.001217298 0.0037429736 0.0025505861 -0.00152077 -0.0036159088 0.00355399 0.0010115778 0.0025973367 0.0032015648 0.0009980191 -0.003048928 5.6723707e-06 0.0041388273 -0.003028838 0.0047510425 -0.0036051804 0.0021284942 0.0010867047 0.0036931774 -0.0024783711 -0.0023000697 -0.0030287737 0.0016813838 -0.002297213 0.0042961296 -0.002159229 -0.0046050576 -0.0023962315 0.0031853411 -0.003204512 -0.0026549285 -0.0036525608 0.0029662345 0.0016556998 0.0013981031 -0.0015508571 0.0030704618 -0.0030456956 -0.0010146163 -0.0030155345 -0.000468518 -0.0010324058 0.0042184065 -1.0763172e-05 -0.0043046894 -0.0027137746 -0.003423973 0.0012996391 0.0047063194 -0.002941888 0.0041465554 0.00419733 -0.0035973291 -0.0045023947 0.0047026863 0.004210561 -0.00238157 -0.003391489 0.0039555836 0.0018972891 0.004050618 -0.0037739128 -0.004746725 0.00078641047 -0.004961046 -0.002402319 -0.0017754907 0.0048253923 0.004305458 -0.0015009599 0.0029285112 0.00414167 -0.0011162604 0.00477068 0.0036094938 0.0010525584 -0.001931573 -0.0025334815 -0.0015354999 0.0039470303 -0.0030896706 -0.0014228252 0.00461792 0.0016612783 0.0030632352 -0.0040483414 -0.00037952524 0.0027616727 -0.0024034833 0.0037520453 0.004698641 -0.00025800904 -0.0010129854 -0.00033062612 -0.0028694954 -0.004229916 -0.000759398 -0.0013278052 0.0022074215 -0.0034133422 0.0027404288 -0.0033565888 -0.0039038588 0.004286504 0.0044317637 -0.0017151942 0.0017621918 -0.0028915089 -0.00438582 -0.0027329514 0.0033732583 0.0032927082 0.0046637934 0.0035648965 0.0033498532
looked 0.0006544987 -0.004915003 0.0022882433 -0.0002664006 0.003162606 0.0008900772 -0.0015608997 0.003877626 0.0007884286 3.1820702e-05 -0.0022994478 -0.0042260047 -0.0038899477 0.0043334807 -0.004472506 0.004516653 -0.004645731 -0.00014396777 -0.0009482797 -0.004463693 0.004321445 0.0033761235 0.0015097472 0.002410343 6.1524144e-05 0.0046998737 0.003521536 -0.004928842 -0.0022253655 -0.00064503826 0.001533866 -0.0021647615 0.000742921 -0.003935333 0.0013920532 0.0023524263 0.0024712412 -0.0015943926 -0.0042216345 -0.0046109203 -0.0003685283 -0.0036720657 -0.0033992662 0.0030473303 0.0035859281 0.0010463663 -0.003948281 -0.0028575393 0.004035121 0.0019697128 -0.0026258081 -0.0036982498 0.00038807368 0.001742711 0.0010474197 0.0015527 -0.0028020248 -0.0049412088 -0.003522963 0.00011737987 0.0023045514 0.0022559671 0.00094738085 0.0025823228 -6.839645e-05 0.0020529688 -0.0045648124 0.0038648648 0.0030615274 0.0025651592 0.0036099434 0.004217235 0.00037713442 -0.0008421823 0.00027336075 -0.0046615405 0.004200988 -0.0031805048 0.0042031007 -0.0021157544 0.0003208486 -0.0045796596 -0.0047848304 -0.00389763 -0.0038651533 0.00018476712 -0.0036072787 -0.00246444 -0.0026356708 -0.0021406105 0.0034987435 0.0024163995 0.0043444093 0.0035383755 -0.002844917 0.0036307825 -0.0046516755 -0.0013013483 -0.0038765916 0.0020937882 0.00089686445 0.0035124833 0.0014716017 -0.0034930182 0.003851204 -0.00299761 0.004495835 0.0014697339 -0.0020122258 -0.00235271 -0.0022040778 -0.0030726644 0.004689441 -0.0013039026 0.003889067 -0.0048524127 0.0010582982 -0.00062027114 0.003769318 -0.0045266203 0.0037155019 -0.002544616 -0.0030026347 -0.0028383487 -0.0016758372 -0.0017027045 -0.0015994388 -0.0037329234 0.0003512046 -0.0002782637 -0.00084057514 0.0018811945 -0.0038144996 -0.001622082 0.0025793582 0.0042767464 -0.0049093817 0.003592576 0.0026505133 -0.0019488415 0.0042683743 -0.004618831 0.0036249321 0.0026864295 0.00065528054 -0.0025981073 -0.0020848345 -0.0016811369 0.0008011401 0.0007901378 0.0036997315 0.0049988236 0.004433522 -0.0020054297 0.0048184725 -0.00030865407 0.002428399 0.0012775168 -0.0003228046 0.0018367224 -0.002652901 -0.0028821416 -0.0037949807 0.00095890026 0.0032610993 0.00043504935 0.00061680446 0.0015763574 0.0040626726 -0.0038442088 0.0011371621 -0.0037354103 0.001851229 0.0047612013 0.0037639916 0.003205036 0.0040002246 0.0032732869 0.0034243236 0.0043457635 -0.0024635226 0.0046057645 0.0025259734 -0.0010752138 0.004253399 0.0025432853 0.0048203184 0.001413833 0.004943267 0.00060416927 0.0045704343 0.0017955722 0.0032880744 -0.0018102817 0.0033981341 0.0036183966 -0.0010731042 -0.0009353708 0.0018047908 -0.0035325808
years 0.0048843226 -0.0049092267 -0.0032982405 0.0014101261 0.0032132203 -0.0027005852 0.0014207159 0.0045837313 -0.0034190957 -0.0030333886 -0.002497677 -0.0018318273 0.00093955913 0.0048489706 0.0032015075 0.00018016246 0.0012484969 0.004220265 0.00455762 0.0027597803 0.0030019598 -0.0038777709 -0.001916596 -0.002885032 0.0030812174 -0.0011603391 -0.0044013383 0.0037604491 0.0041455934 -0.0016820878 0.004588664 -0.00035175958 -0.0017910852 -0.00020025783 4.3535743e-05 -0.0017140917 0.001440711 0.0028336584 0.0034008662 -0.0044851173 -0.0011096214 -0.0027588352 0.0037724094 0.0032693986 -0.00209557 0.0011528337 -0.0029971614 7.813514e-05 0.004767308 -0.0012828218 -0.0025740378 -0.003697931 -0.0014505483 -0.00043789766 0.0018184227 0.004868517 -0.0016955693 0.000960767 0.0047850255 0.00077915366 0.0004953135 0.004886786 0.0046610725 0.0038235586 -0.0031445692 0.0049688737 0.002899097 0.0046101785 -0.0010297542 0.0016915438 0.0033986599 -0.001947262 0.0033712545 0.0013044461 0.004694117 -0.0014881028 -0.0015675024 0.0030890177 -0.0045997715 -0.003625124 -0.0032515267 -0.00037928412 -0.00124735 0.0034526703 0.004579923 -0.0004374898 0.0007203102 0.0010225927 -0.0010054525 -0.0040507615 0.003745762 -0.0020949636 0.002292753 0.004573452 0.0015428601 0.0016192077 0.0020088651 -0.001366196 0.0019444649 0.0001873866 0.0027958534 0.0027306983 0.00094416336 0.0028260862 -0.004522542 0.0032676044 0.0046193595 -0.002060268 0.0007523337 -0.0026361614 0.00050245784 0.0013318701 0.0040521515 0.0002529127 0.00126957 0.0006142571 0.0041812044 -0.0029311816 -0.0031518135 -0.0018641978 -0.0011424901 0.0025680459 -0.004031408 -0.0014510843 -0.004101735 0.0025855522 -0.0013518301 -0.0045576077 0.0019944704 0.0044919234 -0.0015444272 -0.0028726058 0.0014844316 -0.0002637412 -0.0050172196 0.004237913 -0.003734141 -0.0025259624 -0.0013837382 -0.0028005277 0.0008526536 0.004807582 0.0022856365 0.0040535433 -0.00020676765 0.00032788215 -0.0013419751 -0.0043736934 0.0017151394 0.0010276359 -0.00466329 -0.0025117677 -0.0048685074 -0.00286792 0.0019726832 0.0043362705 0.0020874601 0.0012253398 0.004076632 -0.000548577 -0.0006830987 -0.0043789367 -5.298777e-05 -0.001302091 0.00018748544 0.003661906 -0.0034619789 -0.001984286 -0.0033893264 -0.0017481701 -0.0016866126 0.0010608914 0.0016637595 -0.002490371 -0.0022671297 0.0005911678 0.0026830737 0.0027274685 -0.0015087018 -0.0021186213 -0.002803632 -0.00023132966 0.0009321747 0.0007901075 0.0037063828 -0.0013208399 -8.629946e-06 -0.0027571104 -0.00053379044 -0.0038589295 -0.00043960015 0.0006824089 -0.0043029664 0.00434667 -0.0045686266 -0.0047900756 -0.00419052 0.0035889444 0.0027266366 0.0045751757
fertile 0.0013036707 0.000428168 -0.0013419745 0.004715044 0.0013706795 0.0020031496 -0.00054631516 0.00048587206 0.003282224 -0.0003536615 0.0016607088 -0.00033514152 0.0026174271 0.0018553833 0.0012517973 -0.002672837 -0.0023594769 0.0021835743 -0.0029744722 -0.00016598248 -0.00032953246 0.0016717811 -0.0042126034 0.004349419 -0.0007108386 -0.002679977 0.0020034807 -0.0010152571 -0.003939966 -0.0022535485 -0.00016217501 -0.0044547156 0.00030919095 0.0012073669 -0.0016477363 0.0013361477 0.0013117531 0.0049789953 0.0006963479 0.0009919349 0.0013493794 -0.0010335724 -0.0043059727 0.0039713895 -0.0009002969 -0.004859995 -0.0032591384 -0.0020338946 0.00202866 0.0025500953 0.0030866656 -0.0033789293 0.0003418225 -0.0013937289 -0.002562682 0.0035006618 0.0019896443 -0.0015178367 -0.0041997125 -0.0025310875 -0.0003158554 0.0038723762 0.003042464 -0.004239095 -0.004842396 0.0035247505 -0.0011716738 -0.0017792967 0.0028491672 -0.0028860809 0.0025171977 -0.00014366255 -0.0033827543 -0.00012547511 0.0032487256 0.0046983305 0.0011264398 0.00252277 -0.002543313 -0.00037126415 -0.0026494768 0.00056941295 -0.0009918507 -0.0017495615 -0.0035478012 0.004804885 0.0014755912 -0.0011386231 -0.0020787152 0.00382118 -0.003221974 0.0016166888 0.0003915469 0.004193977 0.0034730728 -0.001411531 0.0012839234 -0.00085627614 -0.0047171107 -0.0013119399 0.00064130145 0.0032688805 0.0050227507 0.0045020455 -0.0040379325 0.0032399297 -0.0028246983 -0.00044241495 0.00021262618 0.0032763986 0.0022128455 0.0022674857 0.0047352742 0.00016237775 -0.0030526977 -0.003192732 0.0032317133 -0.0026790858 -0.0014701396 0.0019912152 -0.0011808679 -0.002923745 -0.0011318689 0.00055930525 0.0011033627 0.0030546428 -0.0026597134 0.001506334 0.0035470545 0.001068845 0.0026691337 -0.0023837904 0.0030423875 -0.0038433075 0.0017087923 -0.004603002 -0.0013868737 -0.0046119746 -0.0008560482 -0.0027548454 -0.0019895933 0.0005316751 0.0013756899 -0.00074015534 -0.0040684426 -0.0029695053 0.00041308507 -0.0019815343 -0.0047286274 -0.00041921186 0.003367912 0.002946921 -0.0049485955 0.0015326926 -0.0030787974 -0.0045818873 9.493551e-05 -0.00017940011 -0.00348404 -0.0031060232 -0.0011824134 0.0035255752 -0.0037608682 0.0038396558 -0.00023158021 0.0005533259 0.0047767316 0.0023283549 -0.0018875184 0.0018797748 0.0017181247 0.0031477525 2.6717433e-05 -0.002263168 0.00067214103 -0.0026833755 0.0006539157 0.002497228 0.00255464 0.004617415 -0.003767458 -0.002678654 0.0031674206 0.0006811814 -0.003283546 0.00047908537 0.0014023026 -0.0012158985 -0.0024388793 0.0024792932 0.0048384094 -0.003669783 -5.1377596e-05 -0.0013012127 -0.0031494526 -0.00068103336 -0.002565301 0.0044746217 -0.002890033 0.0017691366
counties -0.000106463856 0.002128556 0.0009811934 0.005022485 0.00031878965 -0.0027856608 -0.00054539944 0.0010705442 -0.0016937633 -0.0038835653 -0.002798822 -0.0033538637 0.0031733357 0.0019797513 0.004083768 0.0032238686 -0.0030504677 0.0013770146 0.004224416 0.0007225664 0.0015503847 0.0028367154 -0.004421502 0.0045481613 0.003405924 0.0042373124 -0.0041311188 0.0030070753 0.0032353047 -0.0007061707 -0.003121563 0.0026629425 -0.0034049207 -0.0026625064 0.0017090101 0.0041146837 0.0043846904 -0.002232367 -0.004626164 0.004741401 0.0031086032 -0.0020323652 -0.0042346986 -0.002380105 -0.0018785085 -0.0016956584 0.00040549593 -0.00021830275 -0.0014957801 -0.00294635 0.0047567515 -0.00234249 -0.0036126703 0.0038456116 0.0012937643 0.0043107136 -0.0022209545 -0.0034461208 0.00039767227 -0.00055423507 -0.0047014547 -0.0008234493 0.0015503801 0.0032379949 0.0033180641 0.0016228274 -0.0022152823 -0.000856109 -0.002041699 0.0029254577 -0.0031959557 0.0010333277 -0.0006108037 -0.0028769819 -0.003550978 0.0029654908 -0.0041667325 -0.00032909968 0.0013529271 0.0038826407 -0.0036458073 0.0016384273 0.004813703 -0.0034337116 -0.001784029 0.0025368598 0.002604964 0.0008443685 0.004012933 0.0004005071 0.00092218874 -0.0007313309 -0.004097998 0.0016612076 0.0010220482 -0.004311352 -0.00033668953 1.1645745e-05 3.0756397e-05 0.004339841 -0.0012907045 -0.0029485784 0.003760703 -0.003675071 -0.0045361463 -0.0009282036 -0.0041509257 0.00022656884 0.0009482183 -0.0012470307 -0.003255281 -0.00022184606 -0.0005831979 0.001677057 0.0040295706 0.002917553 0.004254089 -0.004571078 0.004677225 -0.0012495955 0.004331516 0.0013020225 0.0018103913 -0.004848639 -0.004737585 0.0045283074 -0.0015178892 0.0013856811 0.0031295598 -0.00019574497 0.004848492 -0.00048057016 -0.0048589488 -0.0035643429 -0.0005395946 -0.0042999443 0.003604081 0.0017147838 -0.004453463 0.0041443575 0.0044351537 0.002894953 0.0034404392 -0.0047985106 0.00030213824 -0.004623143 -0.0018476609 0.000111399575 -0.00019626916 0.0007257335 0.0016973212 0.0010378838 0.002662921 0.0037664617 -0.0030518407 0.0039960546 0.0030144611 0.004925327 0.0022946773 -0.0016257714 -0.0018373542 -0.0003394097 -0.0008171468 0.0049403203 0.0005648072 0.0020162207 0.0017436334 -0.004450576 0.003284697 0.004148465 -0.0008760983 0.0011732492 -0.0032379208 -0.003091871 0.004095778 -0.0014899853 0.003317707 0.00082726293 -0.001014908 0.0015467112 -0.0020001929 -0.0009059967 0.00062715437 0.002440431 -0.0006708483 0.00039667496 -0.0039224923 0.0047988007 -0.0043211873 0.003541667 0.002003619 -0.003484688 -0.002664761 -0.004026463 -0.002512454 0.0035636155 0.0049040383 0.0010232585 0.00031812926 0.0046930728
spread -0.0024640588 -0.0006371446 0.0016219727 -0.0031861356 -0.0048558037 -0.0046403506 0.004566142 0.0027006424 -0.002407846 -0.0041478006 0.00065198087 0.0014151729 -0.00061611057 0.00064788846 -0.0021825104 0.0023983256 0.0007441212 0.004441179 -0.004985254 -0.0026337274 -0.0045537427 -0.00022189779 -0.00393549 0.002470969 -0.0032047073 -0.0030089396 0.0025183614 -0.0041133272 0.0007083179 -0.0036432494 0.0049427385 0.004325745 0.00093581446 0.0028856494 0.002290368 -0.0029674086 0.0049315235 -0.004854812 0.0040117814 0.0013806853 -0.0015170855 -0.0017857495 0.004547671 -0.0027036427 0.0041393004 -0.0030397575 0.0042045345 -0.0003083463 0.0040131668 -0.0015837573 0.0029957348 0.0043983776 0.0012803299 0.0006648471 0.0025470648 0.0039936975 0.004305923 0.0042592213 0.003484587 0.0040411325 0.004286766 -3.800382e-05 -0.00048562294 0.0008251126 -4.042538e-05 0.00031515205 -0.004309985 -0.0047668377 -0.001183965 0.0044684163 -0.0018246864 -0.0035123753 0.0024579782 0.000570871 0.0009482241 0.0018475428 0.0017821097 0.0028479635 0.0005842903 0.00045522145 0.004512171 0.0013959279 -0.0023682413 0.0033016456 0.0025663315 0.0014222884 -0.0015666605 0.0016894453 0.0031691254 0.003532081 0.00048136114 -0.004236819 0.00015098616 0.00018434253 0.0020064663 -0.004725419 0.004850394 -0.0034768803 0.0028964633 -0.004691561 0.0048020943 0.0036410836 0.0006532213 -0.0017305627 -0.00025380836 0.00023118568 -0.0031794657 0.00287116 0.0011595897 0.0018791946 -0.0036314302 0.004230188 0.0002508666 -0.00012137369 -0.004556123 0.0020076889 0.0033834702 0.0036526467 -0.00321623 -0.0039454564 -0.0027606883 -0.0002575297 -0.0041547567 -0.004157606 -0.0009492442 0.00057876296 -0.0047823275 -0.0018783003 0.00029538403 0.003389082 0.00086608686 -0.00030818954 -0.0037739058 -0.0033859736 -0.00038754012 0.0037617888 0.0026889984 -0.00078071444 0.00054191164 -0.004839011 -0.0006721497 -0.0023452563 0.0028847565 -0.0011571721 -0.0023676453 -0.004754685 -0.0005878919 -0.0035972625 -0.000851639 -0.0020619936 -0.0011539988 -0.0016410298 -0.004073849 -0.0006227707 0.0007896204 -0.002004259 -0.0038364665 -0.001765211 -0.004515406 -0.0003651871 0.0029704717 -0.0014931042 0.0015970822 0.0025124904 0.004248814 0.0028199805 0.0047549773 -0.004841249 -0.004029713 -0.0033553455 -0.0037486148 -0.0039516855 -0.0039179483 -0.0015159969 0.0007059855 -0.001447117 -0.0044329795 0.002514642 0.000423474 0.002327169 0.0035953552 0.0038275851 -0.00043899237 0.0018410281 -0.0025472995 0.0009836755 0.0022965595 0.0049423757 -0.0015734554 0.0013822858 -0.002865587 -0.0010938678 0.004051138 -0.0019773624 -0.00055522285 -0.004646861 -0.0046901572 0.0044228076 -0.0028449115 0.002486412
beneath -0.0034705596 -0.0012240028 -0.004074874 0.003772201 0.0030438069 0.0025610651 0.0042518177 -0.0003057668 -0.004649514 0.004597475 -0.00244899 0.00390559 0.0027866645 -0.0005376898 -0.0038731273 -0.0007262998 0.003161701 -0.0034779336 0.0007451384 -0.004027722 0.004358275 -0.0015195013 0.0047391406 -0.0028993527 -0.004864841 -0.0043552215 -0.002093472 0.0023027947 -0.00017284064 0.004563283 0.0015886314 0.00190218 0.001542937 0.0040535624 -0.0012202963 0.0037646287 -0.0047182934 0.0014090602 -0.00037368364 0.00021222359 0.0034076774 -0.0014791095 -0.0011656436 -4.4051976e-05 -0.00016775397 -0.0018183785 0.0031133804 -0.0033568302 0.0040192534 -3.916694e-05 0.0013327574 0.0016377879 -0.00011454499 0.00086480944 -0.0015237787 0.0023803273 0.00014109784 -0.0016207423 -0.0044530546 -0.004937082 0.00012628183 -0.0029175319 -0.000543228 -0.002105501 -0.004421514 0.0005216539 0.002952099 -0.0010824479 -0.003631657 0.0015959385 -0.00024079354 -0.0028153898 -0.00048541193 -0.00028301848 -0.001549327 -0.0049402006 0.0038169045 0.001836195 -0.0013133093 0.0037196625 0.00018193116 0.0035934662 -0.00080861687 0.0038168137 -5.026067e-05 -0.0030639323 -0.002370786 0.004842788 0.0002959563 0.00047801225 0.0042456095 -0.003098486 -0.00089657446 -0.004076675 -0.0032858474 -0.0042716595 0.0019563742 0.0013454258 0.0028484273 0.0012964588 0.0010248017 0.0028533207 -0.0010479994 0.0015440048 0.0041926047 0.00019383735 0.0031588716 -0.0033448644 0.0032514534 0.0023503732 0.0025075928 -0.005019696 -0.00020414179 0.0015619694 -0.0029445284 -0.003393692 0.0032036602 -0.0034996558 -0.0026274808 0.0039914683 -0.0035249146 0.0043636253 0.0003305195 0.0021329443 -0.0015023369 -0.002695607 -0.004530881 -0.0003263482 -0.0025964 -0.001577491 0.0040235925 -0.0037996902 -0.003231391 -0.0026594675 -0.0033453803 -0.004381749 -0.0006441141 0.00461062 0.00394779 -0.0027228151 -0.0040774047 -0.0011963468 -0.004648438 -0.0024897808 -0.0029220146 0.0015148378 -0.0038262908 0.0006137878 0.0011198123 0.0026236954 -0.0009591831 -0.0049270527 0.002642649 -0.0029629031 0.0023782437 0.0010090732 0.0044015953 0.0008133906 -0.0009175919 0.0032966393 -0.0034828933 -0.0042360937 0.0019183513 -0.0012909471 -0.002091584 -0.00097032235 -0.004912638 0.000115491544 -0.0005996698 -0.00144172 0.0011889049 0.002361001 0.0031455688 -0.004020181 -0.0024897296 -0.0043930467 -0.0045279926 -0.001841585 -0.00066881545 -0.0040663984 -0.002671898 -0.0010681298 0.0030930191 0.00080512627 0.0041683363 -0.0040850993 -0.0022504248 -0.00037461251 0.004473945 0.00054929586 0.00078120007 0.0006686649 0.0014619672 -0.004732245 0.0016787546 0.0027437313 0.0027461876 0.0021571629 -0.004018058 -0.0021023264
speckled 0.004199687 -0.0002988708 -0.004783602 0.002425105 -0.003050922 0.0033002729 0.0027607235 -0.0025116866 0.0012646579 0.0027482451 -0.0017827902 -0.0007660208 0.004600356 0.004538745 -0.0047392887 0.003799105 0.0049344907 -0.001423402 0.0012268712 -0.0014448193 0.0043330053 -0.00021422005 0.0028413455 0.004541074 0.0020456137 -0.0036109048 -0.0009803543 0.00043936734 0.0009832107 0.001411785 0.004759632 0.0022157505 0.005003918 -0.004338746 -0.002860547 0.0010312804 0.0019004025 -0.0005003592 -0.0035034006 -0.0015898646 -0.004241355 0.0046490477 0.0018784022 -0.0039305044 0.0016511966 0.0020305014 -0.0028161716 -0.0030327989 0.00057780894 0.0044958163 -0.004770648 1.033764e-05 -0.0034025877 -0.00044657465 0.001544697 -0.0024906592 -0.0013556497 0.00034315485 -0.0032680535 0.0036715898 0.00217372 -0.004325951 -0.0010686913 0.0015871718 -0.0042565623 -0.003542471 -0.004252434 -0.0027283954 0.0043829405 0.0035451995 0.0013979191 -0.004305223 0.0029427998 0.0023518908 0.00010135144 -0.0043931743 -0.000900837 0.000105669256 -0.003929491 0.0012994689 0.0002222745 -0.0035119797 -0.004164388 0.0030808335 -0.004201402 -0.0028188203 0.0027750735 -0.00019880125 -0.0015274547 -0.0026250992 -0.0005920461 0.0026879632 -0.0029486653 -0.0024951696 -0.0024159544 -0.0023751252 -0.0039998177 -0.0048838845 0.0038041542 0.004032905 -0.0021590544 -0.0046791527 -0.00093381625 -0.0018968829 0.0045352695 0.001471127 -0.002992045 -0.0016718942 -0.004993652 0.0009781979 -0.0019962625 -0.0014205397 0.00263096 0.0038105529 0.0021572474 -0.003458591 0.0033711821 -0.004869922 -0.0035425792 -0.0040074913 -0.0011496238 0.00031111852 -0.0018979058 0.0008553675 0.004616395 0.0033424643 -0.00058280677 0.0045431084 0.00071599334 -0.0010199706 -0.0033066843 0.0032512427 -0.0046004206 -0.0009847492 0.0037842852 -0.0012453758 0.0007333414 -0.003751095 0.0024368186 0.0036115518 -0.004651398 -0.0016857267 0.003920278 0.0015059081 3.3193824e-05 0.00018101471 -0.004939169 0.0049745073 -0.0009959878 -0.0024714973 0.001439714 0.0005215301 -0.0029385127 0.0028688877 -0.0013199477 -0.0030593448 0.0035909766 0.0032711427 0.004402154 0.00065881864 0.00030911787 -0.003998905 0.0023133708 0.0046870313 -0.0003124136 -0.0008787359 -0.0019142806 -0.00025511807 -0.0038680565 0.0028829505 0.00072464434 0.0046493923 -0.0032402123 -0.0026194113 -0.0030992115 -0.0036224164 0.001318251 0.0024810836 0.0006470758 0.001804371 -0.004683878 -0.00052000623 -0.003930434 0.0015050531 -0.0013418054 0.0044937683 -0.0016784744 0.0034623188 0.002120604 0.00067313045 -5.7593606e-06 0.0041291504 0.0011653244 0.004087433 0.0016836206 0.0026873169 0.0026019153 -0.003866099 -0.002877206 0.0005636425
sixteen 9.916755e-05 0.0010811994 0.0004765617 0.0038279817 -0.0022035895 0.00012843372 0.0035471055 0.0011456936 0.002113232 0.0021832157 -0.00063853664 -0.004174511 0.0015202377 -0.004434513 -0.0013737859 -0.0047058254 -0.0002213496 -0.003934225 0.0037119163 -0.0024747294 0.004975893 -0.0045846784 -0.002158956 0.0009159756 -0.001508657 0.00068941346 -0.0018614097 -0.0004932822 -0.0029231207 -0.004925575 0.0031980046 0.00021891108 0.0032986382 -0.003744813 0.0018061046 -0.004921885 0.003839964 0.0029410084 -0.0030815303 0.004101122 -0.0028128668 -0.0042959033 0.00078294665 0.0015982362 -0.004001262 -0.004499655 0.0045790547 0.0007453773 0.00050030503 0.0012716772 -0.001735109 0.0008923761 0.000984244 0.0049192747 -0.0027735909 0.0011297778 0.0031678118 -0.0032982465 -0.0045415475 0.004366688 0.0034174747 -0.0020437124 0.0028790957 0.000365285 -0.002570406 -0.0007166404 -0.0024399876 0.003113926 0.0009412148 -0.0041435976 -8.3292616e-05 -0.001356564 0.0033371279 -0.0005485271 0.0038892275 0.0009995622 -0.0018817371 0.0040810923 0.0014318448 -0.0019472201 -0.0028316895 -0.0015343925 -0.0026007977 0.0017571107 -0.0046888725 -0.0029484157 0.0016622144 0.00013787758 0.002992658 -0.0018284222 4.8416023e-06 0.0012753508 0.0027109329 0.0008090392 0.004929088 0.0018813345 -0.0035939794 -0.0006929681 -0.004161291 -0.0026577967 -0.0011228849 -0.004846274 0.0046627647 0.000972261 -0.00059904176 -0.0027418656 -0.00424597 -0.004936607 0.0044587064 -0.0012480965 0.0022886717 -0.0023311777 0.0049716663 0.0018076497 0.00047030777 -0.0020561612 0.0006370056 -0.0013631213 0.0036492369 0.0021945143 0.0004732166 0.0018379844 0.0018504504 -0.0034457436 0.0044571306 0.0008971582 -0.0029670764 0.004319209 -0.00067524303 0.0040585715 -0.0007640109 0.003510671 0.0013479372 -0.002182857 -0.0018948843 0.004630561 0.00074161636 -0.0030649507 0.000102992904 -0.0010413142 0.00077872485 -0.0039042837 0.0036765947 0.00066891033 0.003966063 0.0022276791 -0.0021834532 0.0018636398 -0.00035730482 -0.0049462193 0.0041660783 0.0047814525 0.0048547215 -0.0018943981 -0.004310075 0.002436198 -0.003807865 0.0042795124 0.0013732249 0.0028293845 0.0031034253 0.00020894613 -0.0010186604 0.0003703347 0.0049266033 -0.003567345 -0.00077315804 -0.0012046116 0.0023768006 0.0032583652 -0.0021014037 0.0018143391 -0.0022450204 0.0015907635 0.0040854425 0.0018285632 -0.0023198177 -0.001462246 0.0038892943 0.004829229 0.0029046827 -0.0016418705 -0.0009656549 -0.0031290264 -0.0021211917 0.0017343936 -0.003221915 -0.0032976777 0.0040973984 0.004743394 0.0040915455 0.0007655827 -0.0043961196 -0.003831483 0.00084095355 -0.004759667 -0.0036530176 0.0009950136 -0.0014614864 -0.00462446
happy 0.0032051993 -0.0044912044 -0.0037302228 -0.00086263346 0.0008573857 -0.000558588 -0.0025492318 0.0033114236 0.004389869 -0.0036616556 0.004920762 0.0036897664 -0.0037381041 -0.00092109933 0.0020906506 0.0035387035 -0.0018347265 -0.003497357 0.0023495052 -0.004565279 -0.0029291732 -0.0006969857 0.0027705505 -0.0028881775 0.0023951263 -0.00022750204 0.0013047736 0.003156815 0.0006747703 0.0038330106 -0.00012901299 -0.0041046487 0.00463779 -0.0024672362 0.0023451715 -0.0018862765 -0.0036308898 -0.0032787428 0.0023007684 -0.00036757885 0.0007125981 -0.0044765403 -0.0025564518 -0.0030155275 0.0042930115 -0.0043522213 0.0025126184 -0.0004930883 0.00016071234 0.004430586 -0.0017712099 -0.00343907 0.00038610998 0.0038847483 0.004591784 -0.0018544991 0.0013777377 0.0025178276 -0.0027156756 0.0034820063 -0.0032387315 0.0010344599 0.002313207 0.0021866902 -0.002414559 0.0012957277 0.003640574 0.0043649827 -0.004784526 0.0028271442 0.0024454547 -0.0008295055 0.0046419823 -0.002038503 -0.0008061211 -0.00339481 -0.0018810736 9.988164e-05 -0.0016728336 -0.0026692958 0.0032791751 -0.0026579567 -0.0032027103 0.0038500775 0.004784876 0.0019810514 1.2720804e-05 0.0004145968 -0.00047860004 0.003408951 -0.003130266 0.00029622045 0.002140624 -0.0010423354 0.0004683898 0.0018836372 0.0048429873 0.0010780408 0.0047659795 -0.002886937 0.0023671007 -0.0018104607 -0.0021494958 0.00054800307 -0.0020970553 -0.0028227281 0.00157845 0.0041956515 -0.003336383 -0.004553157 -0.0016858126 0.0037251664 -0.004849289 0.0047815614 -0.00021335078 0.0010947854 -0.0009323839 -0.0029257385 0.0015002304 0.0030420148 -0.0035146885 -0.0005366493 0.0007737737 0.002080067 0.003571758 -0.0017619514 0.0035895538 -0.0028261356 -0.0011308958 0.0045061186 0.0026580542 -0.004217813 -0.0008714595 -0.0044581085 -0.0008454429 0.0028734242 -0.003779448 0.002679302 0.0029984172 -0.0019581981 -0.0048151705 -0.0013047347 -0.0012961421 0.001916296 0.0044997865 0.0009851648 -0.0010420419 0.0014833587 -0.0034376348 -0.00068713137 -0.00069463276 0.00475113 -0.0028865824 -0.003503277 0.0011246541 0.0013308367 -0.003560534 -0.002939076 -0.0005955348 -0.0016384241 -0.0044520353 -0.0020254252 -0.0014648297 0.0032505125 0.00046959365 0.00080279954 0.0001459902 -0.0017066036 0.0014820442 0.00039396464 0.002942167 -0.0003840212 -0.004455773 0.00038660323 0.0049775955 -0.0026040543 -0.00262498 -0.0012120993 0.0042634592 -0.00039481273 0.004697106 -0.004186535 0.004459644 -0.004846575 0.004611178 0.0009996068 0.0013451034 -0.0028911298 0.0042725448 0.003010617 -0.0027157648 -0.004724383 0.0034901903 -0.002782806 -0.004600049 0.0013203194 -0.0024004506 -0.00373162 0.0048719104 -0.0008616799
cottages -0.0007333035 -0.0020175374 -0.0022233066 -0.002304485 -0.0028190135 -0.0026662815 -0.0039689466 0.004768568 0.0031928127 -0.001808622 0.0012418084 -0.003824917 0.0037510262 0.0041579315 0.00036962063 -0.003392327 -0.0014901469 0.00236276 -0.0014727538 0.0015542514 0.0047041476 0.002148149 -0.0025727435 0.002704499 -0.0014501157 -0.0032193433 0.0035063128 -0.004658367 -0.00057132926 -0.00070964056 -0.004190299 -0.0005435704 0.002827002 -0.0026572135 -0.003517142 0.0031008562 -0.0016760533 -0.0039206166 0.00012426256 -2.0758887e-05 0.0037677737 0.0002761896 0.0039552334 -0.0049037472 0.002062739 0.0030808693 0.00051629887 -0.0014407601 0.00054158404 -0.00040627213 -0.0040356205 -0.0033885683 0.0006071498 -0.0010049859 0.0047994605 -0.0004770307 0.003074127 0.0010346634 0.00402511 -0.0046219383 0.0011939547 -0.00074163976 0.001078673 -0.00010600788 -0.0033559036 0.0045110933 -0.0014407393 0.00097503467 -0.003240345 0.0018636279 0.0049909293 -0.00061527453 0.0033227508 -4.309389e-05 0.003985421 0.004829913 -0.00018400354 -0.00084453536 -0.0047872355 0.0049541374 -0.0012622062 0.0010883891 -0.00086585374 0.0041921185 0.004170789 0.00076433335 0.0014488652 0.0032400624 0.0011234033 0.003208754 6.86983e-05 -0.001115317 0.00267508 -0.0017027813 -0.0012792788 0.0044037746 -0.004563729 -0.0017160511 -0.0014511351 0.0028417006 0.0039600534 -0.0032340102 0.0029049038 -0.00012988203 -0.0045321947 -0.001225196 -0.000794939 -0.0022284214 -0.00042467978 -0.0026045868 0.0029676394 0.004623338 -0.0007939141 0.0017061981 -0.00039034552 -0.0003747124 -0.0034971372 0.00071059266 0.0019495985 0.0034498333 0.0032559882 0.0017884938 0.0023373303 -0.003740214 -0.00067334616 -0.0028902255 0.0033817682 0.003919873 -0.002162745 0.0005658156 0.0025465407 0.00090477173 0.0003591147 -0.0033865867 0.004896653 -0.0035971554 -0.0030394865 -0.002857555 -0.003196827 -0.0017619435 -0.004698694 0.0005649685 -0.0018813198 -0.0012492869 0.002902651 0.0017767968 0.00090794486 -0.00067689613 0.00494187 0.000106869906 0.0025382077 0.004525725 -0.0048830486 -0.004577518 0.004927276 0.001372056 -0.00093849795 0.0023746353 -0.0021502634 -0.0031763231 -0.004103131 0.003579489 -0.0012279347 -0.0037646734 -0.002931079 0.003098023 -0.0012284956 -0.003077164 -0.00084025785 -0.0007216043 -0.0016364086 -0.0010378507 0.002025985 0.00069891737 -0.0017257456 0.0013606964 0.0025808823 -0.0045814468 -0.00379605 0.0031690549 -0.004472905 0.0002739848 -0.0045172353 0.0041883267 -0.0021384913 -0.0032876413 -0.00067666214 -0.0005460263 0.0038038013 0.0045590256 -0.00017212331 0.0013603566 0.002365686 4.659278e-05 -0.0028891093 -0.000315663 0.0011160964 0.0041278657 -0.0017715852 -0.0049440386
terrace 0.0027071093 0.0049093124 -0.0035957368 -0.00027293403 -0.0025280335 0.0031804733 0.004913669 -0.00014759242 0.002571472 0.0032879738 0.002210831 -0.004000348 0.0015366591 -0.0007542577 -0.0011466173 0.002707897 -0.0006477555 0.004974946 -0.00030039955 6.1862745e-05 -0.0011441928 -0.0043353853 -0.0048796237 0.002401784 -0.0033257918 0.0014395802 0.0013525417 -0.0035593298 -0.001614412 -0.002933003 -0.0042507555 4.629163e-05 0.0049254117 -0.003339078 -0.0021942235 0.0042227395 0.004697407 0.0048779184 -0.0049624015 0.0024862217 -0.0033433177 0.0034063654 0.003088576 -0.0016928387 0.003544845 -0.0039597386 0.0022738348 0.0022226644 0.003022552 0.0029826537 -0.0012692002 0.0019751233 -0.0030284259 -0.0032126568 0.0014204136 -0.0047183405 -0.00011992655 0.0005857492 0.0039058852 -0.0034381165 -0.001184415 -0.0020972232 -0.0025925217 -0.00022947384 0.0022133633 -0.0025246344 -0.0008192567 0.004387961 -0.00070995156 -0.0017435392 0.003676394 0.000562788 -0.00012453122 0.0047989497 0.0040943515 0.0017444518 0.0017006851 -0.001146315 0.0039756973 0.0025715122 -0.0027251875 -0.003062864 -0.00034897515 -0.0039029934 0.001639278 -0.0046511996 -0.00075991906 0.0017237809 0.0015283193 0.0015629694 -0.0045072366 0.0017642742 0.0026698718 0.0017623698 0.0039279866 0.000855436 0.003136545 0.0043851305 -0.00043966452 -0.00037753585 0.0010830152 -0.0037671921 0.0028122202 -0.0025676694 -0.0016612823 -0.00090352807 0.004115493 0.001152588 -0.0004994665 -0.0014153994 -0.0010752692 -0.00074588147 -0.0025670356 -0.0020927978 6.6492605e-05 0.0022320943 0.00093090034 0.0033664464 0.00028473354 -0.0016533217 -0.0036975914 0.0030894524 0.0034987105 -0.0030650045 0.0023588093 0.004767344 -0.0032386277 -0.0014757395 -0.0046123485 0.0015476693 -0.0017325354 0.0010639481 0.00466202 -0.0041945023 -0.0046981745 0.00091847556 -0.0041058357 -0.0046172272 -0.0047421483 -0.00023013448 -0.00056144764 0.0003130426 -0.0006895712 0.004544127 0.004416083 -0.0031782717 0.004327537 -0.0045140134 -0.0006966503 0.0012176447 -2.6714813e-06 -0.0019584799 0.00024438553 0.000517083 -0.004795187 -0.0024078405 -0.0038438044 0.0019269423 -0.00045871723 -0.003694477 0.0028739092 7.736136e-05 0.0013584273 0.002701803 -0.0021105295 0.0039317166 -0.003906866 -0.0017348428 -0.0037773568 0.00052331114 -0.00372523 0.004553872 0.002750728 -0.00368377 0.003095507 0.003338176 -0.0037533008 0.002360367 -0.0039117667 0.0046723103 0.0023521206 -0.00011296824 -0.0045058196 -0.00043893492 -0.00011002218 0.00054713356 0.00436615 -0.0013469716 -0.0042540613 -0.004427995 -0.0004985694 0.0006986421 1.924843e-05 -0.0011241862 0.004303114 5.6412853e-05 0.0033092978 0.0019289013 -0.0035711327 -0.0011396959
windsor -0.0038871432 -0.00338907 -0.0016024333 0.003320178 -0.0004313478 0.004417678 -0.0011225597 -0.0026345816 0.0019424593 0.0011505695 -0.00012261803 -0.0012213017 -0.0030100965 0.0020188242 -0.0038213897 -0.0044432958 -0.0045642015 0.0041761016 0.0020018604 0.0035196324 0.0049299025 -0.0036462657 0.0020185015 0.001378119 0.0030739359 -0.0017052862 0.004654541 -0.0029298847 0.00350494 0.0034457436 -0.0001580667 0.002529054 0.0033483938 0.000763563 0.0036887585 0.0012229066 -0.0007380361 0.0036830788 0.002330138 -0.001605455 0.0008207259 -0.00010335298 0.0024941715 -0.0027156253 -0.0020611042 -0.0004810138 0.0019221937 -0.0033233433 0.0039558853 -0.0015178007 0.0028843468 0.0014292181 0.0034326217 -0.0022031881 -0.0015927255 0.0015173571 -0.0013996549 0.0029835906 -0.0030393805 0.0013030329 -0.00037711297 -0.00033719587 0.0012708693 -0.0010954977 -0.0021726848 -0.0042847823 0.0012284816 0.0026816013 -0.0029630295 0.004570975 0.0019955642 -0.0025907801 -0.00061996834 0.0019679724 -0.0034923968 0.0010522613 0.002766616 0.0031395296 0.0026923786 0.001860323 -0.0013935097 -0.0030280421 0.00403549 -0.0036135986 -0.0008404944 -0.0016323864 0.0032378663 -0.0031127306 0.0016932131 0.0010321627 -0.0020372812 -0.0040866556 -0.0040201615 0.0017639536 -0.0047528665 0.002847185 -0.0014763637 -0.004606043 -0.002542655 0.0038743292 -0.0008841241 0.003192648 -0.0046556084 -0.004604732 -0.0025995881 0.00046951964 -0.003580519 -0.004731208 -0.004465714 -0.00022361579 0.0037020107 -0.004214122 -0.0026589208 0.00074291014 0.0016529124 -0.004237077 0.00394778 -0.0041424762 0.0023472416 0.0046780333 0.0028187814 0.0031026942 0.0041205008 0.0017041796 -0.003567435 0.0028662053 -0.0041742297 -0.002866255 0.0029268847 -0.0039820573 -0.0029460203 -0.0017715406 0.0016717819 0.0026019134 0.0010149808 0.002584642 -0.0013488119 0.0021207365 -0.0035554725 -0.00086994737 -0.0038781152 6.4641536e-05 0.0023377421 0.0024117334 -0.0023143915 0.0009005562 0.0038891798 -0.0027826112 -0.0019093779 -0.00030450305 -0.0023219534 0.004335444 0.0037903124 0.004623202 0.0046468377 -0.004199339 -0.00024465812 -0.0037680329 -0.0024221619 -0.004380642 0.001748394 4.2522275e-05 -0.0034580193 0.0039787907 0.00048790092 0.0001618834 -0.00178391 -0.0016739109 -0.001350418 0.0038134556 0.0011830067 -0.0025767023 0.002362101 0.0004854046 -0.0013640543 0.0038442186 -0.0019893362 0.0037454208 -0.0021123625 -0.003662856 -0.00224332 -0.001948931 -0.00036636755 -0.00089725875 0.0025618353 0.002760132 -0.0008268626 0.0018889817 -0.00097512576 0.00036200386 -0.00064911775 -0.0011928442 -0.0023828514 -0.0021471663 0.00011017297 0.0008488588 -0.004690105 0.0029979849 -0.0008453732 -0.0015216621
wealthier -0.0023468065 -0.0021637501 -0.0025184555 -0.0048753866 -0.00041532263 -0.0039601657 -0.0022822807 -0.003633918 0.004964704 -0.0006183677 -0.003859532 0.0027642571 -0.0040116063 -0.00092835724 0.0013193134 -0.0035267223 -0.004378347 -0.0033119638 0.0037175973 0.004441365 0.0019924794 0.0010662319 0.002090014 -0.0021199416 0.0048458837 0.0033612296 0.002030341 0.0043684742 -0.004264033 0.00041108803 0.0045164344 -0.00042929774 -0.0032586558 -0.0011755632 -0.0014383983 -0.0011451873 -0.0008712737 0.0035781239 -0.0002050246 0.0021207083 -0.0018983644 0.004087225 -0.003212158 -0.004722454 -0.0019551206 -0.003761109 -0.002428324 0.00015993023 0.0012717056 0.00093583553 0.002546173 -0.0007030414 0.0011646514 0.00019877104 0.00399628 0.0040278197 -0.00093698566 0.000670707 -0.003122607 -0.0023083652 -0.003487827 -5.8198624e-05 -0.0024216098 -0.0020357561 0.00060788065 0.0012893416 -0.0046010986 0.0009576308 0.002507648 0.0021349026 -0.0014983899 0.0046909875 0.004824277 7.646545e-05 0.00051346055 -0.004584481 -0.0023475606 -8.8715e-05 0.0019209085 0.00013643167 -0.0043745255 0.0029203324 -0.0038415631 0.0044016205 0.002732759 -0.0034516228 0.0014375694 0.0039221058 -0.0030149356 -0.0033018566 0.0045932955 0.0009733987 0.0049027805 -0.004958825 -0.00067330257 0.003491979 -0.00072278484 -0.00092630676 -0.0034888538 -0.0028153094 -0.003284791 0.0044225287 -0.00076826854 -0.004238184 0.003980001 -0.0014955879 -0.0006200946 -0.00030185244 0.0013361762 -0.0024168643 -0.0001492497 -0.0015022951 0.0044143265 0.0034400607 0.0005216828 -0.003099906 0.0015878272 0.00046293752 -0.003125274 -0.0029466858 -0.0015741931 0.0013188188 -0.004035147 -0.0025956444 0.0040795845 -0.0018232467 0.0039025794 0.0002449639 -0.0028735176 -0.0025400058 -0.000120053635 0.0023244147 -0.0031605721 -0.0028481488 -0.0034741263 0.003432848 -0.0013234048 0.0018827022 -0.0009083286 -0.003826069 -0.0006586409 0.00012491782 0.0017640243 -0.0043072193 -0.0033439684 -0.0032988493 0.001478117 -0.0018436046 0.0004970721 0.0020451678 0.002350397 0.0011537061 -0.0014457495 0.00026338222 -0.0028140915 -0.003164957 0.004360954 -0.0019794113 -0.0046647373 0.001924529 0.0042691845 -0.00015579628 0.0011578056 -0.0017649273 -0.0020921447 -0.004294495 -0.0039292355 -0.0045935363 -0.003113649 0.0042946786 0.0046710963 -0.0008157411 -9.77875e-06 0.0038318187 0.0006607259 -0.002569518 0.0012526509 0.00095285533 -0.0018944639 -0.00237716 0.0048386846 0.0038708562 -0.004389693 -0.0027449285 0.0007250244 0.00053730153 -0.0041037034 0.00475271 -0.0025721241 0.0023084187 0.004646139 0.00059949985 0.0020997678 -0.001408323 -0.004802934 0.00030535876 -0.0004281685 -0.005069499 0.0035169274 -0.0037965784
towns 0.002567337 -0.0022339346 -0.004676442 -0.0045160996 0.0030892452 -0.0026675018 0.0026763969 -0.00075731665 0.004879721 0.003602161 0.004936432 0.004208423 -0.003923644 -0.0047496245 -0.0028244706 -0.00040084592 0.002509934 0.0018371332 -0.0010047866 0.0024743895 -0.0016801174 -0.0034739245 0.002383122 -0.004964125 0.00045029013 -0.0025214942 0.0037655465 -0.0019158656 0.0013749073 -0.0031507527 0.004847019 -0.002775453 0.0018300313 0.0016020518 0.004437519 -0.002746512 -0.002169856 -0.003113071 0.0030465669 -0.002324392 0.0023886824 -0.00046553838 0.00366631 -0.0030429796 2.6711852e-05 -6.479034e-05 -0.004290591 0.004296043 -0.00097042485 0.0032684496 7.278186e-05 0.0025204318 0.0011167625 0.004446801 -0.0041301614 0.004216361 0.0043478194 0.00057327386 0.0021569903 0.0019540505 0.0020342742 -0.0015116399 0.0014279642 0.00038837694 0.0023367177 0.0041932906 -0.0038887153 0.00010135976 -0.0043930053 -0.0007536593 -0.0045155915 0.0015483242 -0.00072522165 -0.0003171664 0.0032547496 -0.004056759 0.00060432847 -0.0012230859 -0.0019238302 -0.0036047036 -0.004015205 0.004159302 -0.0037824805 0.0024508953 -0.0019233284 -0.00064922095 0.0014193673 -0.0042617605 -0.0028327715 -0.0039092847 -0.0046826033 -0.002338521 -0.001576062 0.0002637102 -0.00033894533 -0.003922657 -0.0019009097 -0.0013921579 -0.0031775523 -0.0031684097 -0.0013285057 -0.003979088 -0.004102805 -0.0038460193 0.0017437467 -0.0038185667 -0.0018557927 0.0033321087 0.0036315392 -0.003206476 0.0033668266 -0.00395478 6.330506e-05 0.0033202635 -0.00145362 0.0045772963 -0.00013733844 0.0022861701 0.0034652848 -0.0043012034 -0.0030450367 -0.003586269 -0.00058096484 -0.003609958 3.3513843e-05 -0.004006845 0.00022414587 -0.00022912338 0.0031694751 -0.004486753 -0.0016016116 0.0029556623 0.0046007717 -0.0009451214 0.00035488434 -0.0030151114 0.000328445 -0.004123504 -0.0038787927 0.0006273889 -6.0534578e-05 0.0027614962 -0.004876474 0.0008394101 0.00082109246 -0.0026315828 1.2907443e-05 0.0030156064 -0.0033218681 0.00010176234 0.0019781552 0.00083792605 0.001436431 0.0040734834 0.0032897324 0.0017699937 0.003993817 -0.0038152733 0.003755341 0.001970584 -0.0029407812 -0.00212337 0.003188832 0.0029107814 -0.0049398313 0.0006329844 -0.00019437504 0.00036629732 0.0034764921 -0.0035433515 0.0047721723 -0.004730222 0.0030914422 0.004692354 -0.0019014846 -0.004677734 0.0030671053 -0.004446873 -0.0041863103 -0.00038862866 -0.003343591 0.0043631922 0.003860151 0.00044152726 0.0040223766 0.0049643046 0.002616665 0.0022008808 0.0027605316 0.0032343245 0.0024033228 0.0032191472 -0.0037374315 0.0044059595 0.004167598 0.0047125868 -0.004441401 -0.0017735459 -0.00016270627 0.0020237253
cheering -0.0041082553 7.393256e-05 0.0029373094 0.0048155347 -0.0014165554 0.0008860235 0.0031829216 -0.0009852103 0.00096093037 -0.004639946 0.0003483954 0.002317036 0.0022397074 -0.0048695495 -0.002586574 0.0014601727 0.00079950975 -0.0023631502 0.0029126166 0.0017072627 -0.0038923242 0.0048598247 -0.003826188 -0.001548206 0.0048841177 0.00054870895 -0.0027843672 0.0005258458 -0.0020954497 -0.0033772374 -0.003853761 0.0023696965 -0.0044879373 0.0020165395 -0.0027814135 0.0027409513 -0.0021797828 -0.0028189404 0.0031551484 -0.0043546017 0.0006442672 -0.0010852878 -0.0033328847 -0.0038519085 0.0034276112 -0.0022784527 0.0022667674 -0.004876622 0.0009893404 -0.00093719695 -0.0029284088 -0.0014013044 -0.0043232385 -0.0017182464 -0.0012720805 -0.0011303141 -0.002539526 -0.004577185 0.002600387 -0.0006145801 0.0030840097 0.0015122814 0.0042903232 -0.0017843029 -0.004521211 0.0006694381 -0.004512079 0.0030790716 0.004178648 0.00027415334 0.0038202158 0.004265989 0.0021453022 0.00271496 0.004602062 0.0005733712 -0.0041158777 -0.0041499548 -0.00095590664 -0.00028599767 0.004397544 -0.004654984 -0.0013667586 0.0046180985 -0.0007587732 -0.0045768344 0.0009900776 -0.0029090848 -0.0027407345 -0.003198581 7.439181e-05 0.0036553254 0.0020606965 0.0040842835 0.0044402787 0.002285918 -0.0030420911 0.0035129744 -0.004740592 -0.002407231 0.0039608106 0.003940969 -0.0027086788 -0.00402441 0.004044471 -0.001925716 -0.0020257295 0.0036280726 0.0026777457 0.0018943758 -0.00061827485 0.004290755 0.0042306427 0.003480794 0.0045376895 -0.0029350517 0.00052106666 -0.00088526576 0.0031585018 0.004852309 0.0025586914 0.002101386 0.003274301 0.0028999764 5.0138256e-05 -0.004178905 -0.0011442195 0.0045299227 -0.002576649 0.0004563315 0.0024347734 -0.0034451066 0.0040764627 0.0007030825 0.0012156821 0.004176899 0.0006691214 0.00040444185 -0.004767112 0.004872323 -0.0049714358 0.0042486875 0.0025209815 -2.6142798e-05 -0.0039161365 0.004673522 -0.0007189488 0.002676738 -0.0015327482 -0.0024484848 0.00011850042 -0.0040273 -0.0033094261 -0.0047490792 0.0026311479 0.00022425609 -0.0004174531 0.002566183 -0.0009811644 -0.003652926 0.0014454359 -0.0029978678 0.00025889016 0.0047347746 -0.00049025984 0.0030647551 0.0022297176 -0.0017996378 -0.0026734995 0.0044452315 0.0010393244 -0.00022021707 0.00044730314 -0.0024780778 0.0017685199 -0.0015593102 0.002092493 -0.002243365 -0.00040138545 0.0019584028 -0.0035763928 -0.0012467877 -0.0043999352 0.00079265656 0.0010392059 0.0012484769 0.0005532336 7.287321e-05 0.0011745249 -0.00043788753 0.0030112988 -0.0014507736 -0.0025512788 -0.0026919553 -0.0047862 -0.0040345965 0.0011046273 0.0019265598 -0.0028847945 -0.0049136374
lovely -0.0030753668 0.0023384304 -0.00454074 0.0025459558 0.0031746505 0.003048875 -0.0037979058 0.0014230645 -0.0027297384 0.0045271995 -0.0021572346 -0.0011749376 0.002606392 -0.00041370228 0.0025373576 -0.0021063436 0.002494304 -0.0048957323 0.0030356925 -0.0006318241 -0.0028050744 -1.923535e-05 -0.0006121829 -0.00036958707 -0.00088100287 -0.004638943 -0.003906133 -0.0034101359 -0.0043161362 -0.0022725982 0.0045987777 -0.00090352795 -0.0037944126 -0.0029517966 0.0017991377 -0.0013514169 -0.00077057997 -0.0021275629 0.002972928 -0.0039173355 -0.0037483887 0.0037537026 -0.0034752197 0.0010802067 0.00019115375 0.004822009 0.00211548 0.0010257856 0.0013833626 0.0011538417 0.0011034842 -0.001356038 0.0020528508 0.0030469869 0.0044697635 -0.00037672042 -0.000606777 0.0032352197 -0.004245729 -0.00032371515 -0.0033399723 0.0023831266 -0.0044751232 0.001619886 0.0044940175 -0.0010362634 -0.0044178567 -0.004082404 0.001618482 -0.0026710185 0.0032148382 -0.00059103355 0.003929686 -0.00024728023 -0.0031009999 -0.0028455139 0.00038667987 -0.0023846976 0.0032717087 -0.0017560193 -0.002820458 0.00048191735 -0.0024376656 -0.0040937904 -0.0026308254 -0.0009309868 0.00022182814 0.001825412 0.0034262098 0.0033560188 0.0029324298 0.0001629012 -0.0029108257 0.0045011793 -0.00031530682 0.0023582575 -0.0007115291 0.0029027432 0.0026567732 -0.0036450303 -0.0013804531 5.8722755e-05 0.0010187094 -0.004647424 0.002413313 0.0016889981 -8.818841e-05 -0.0017479237 -0.0038107745 0.0037981065 -0.0043029874 -0.0037022165 0.0022228605 -0.0042582694 -0.0016508582 -0.0010491407 -0.0009453673 -0.0034225825 0.0021408298 0.000499557 0.0018289192 -0.0006494101 0.0034661877 -0.0047744764 0.0029217869 -0.0025620966 0.0008400706 -0.0034621444 -0.0012499562 -0.0032210334 -0.0016806026 0.004862868 0.0013326942 0.0007982277 -0.0030493103 0.0027946823 -0.0040701437 -0.0011563315 -0.003241805 -0.003201863 0.0011506361 -0.0016564954 0.0012132266 0.0019588517 -0.003129874 -0.0008710546 -0.001386298 -0.0048994343 -0.004917514 0.0005455609 0.0021989662 0.00011533394 -0.0024263028 0.0018171595 0.0008269374 -0.0047164853 0.0035928546 0.0038923367 -0.003869812 -0.00037414447 0.0030308496 -0.0014000626 -0.00015934584 -0.002114423 0.0030619658 0.0034939244 0.0010461984 -0.002346671 -0.0009206198 -0.0019987049 -0.0048841974 0.0039025757 -0.0003024835 -0.000307671 0.0035451779 -0.0045127757 0.003156771 -0.0037812553 -0.0026886316 0.0025384042 -0.0017453722 -0.0017368903 -0.003158932 -0.0019516048 -0.0013275924 -0.0020443788 0.0047350754 0.0047285347 -0.00018560712 -0.00014374076 -0.0028161444 0.0039640786 -0.0024724014 0.0029416534 0.0045600994 0.0028797542 -0.0004620575 0.0027616976 0.0034735263 -0.0019473806
steals 0.00040442368 0.003246778 0.0028935163 -7.5850825e-05 0.0012255014 -0.0033321031 -0.004641578 -0.0024397955 -0.0027183306 0.00029985706 -0.0019973754 -0.00021276422 0.003819403 0.0048781084 0.0039349473 0.0011897756 -0.0013468708 0.0012611268 -0.0013351412 -0.0045312317 0.0034619144 -0.004395383 0.0018893352 -0.0020663324 -0.0027762223 -0.0005500852 -0.0033191722 0.00425485 -0.0035234715 -0.004514932 0.0029309352 0.0022449885 0.0023706553 0.0011863288 -0.0019304451 -0.0024703245 0.0009356343 0.0041205524 -0.002842466 -0.0012042352 0.00093585544 0.0033690329 -0.0031952509 -0.002253046 -0.0012164739 0.0006642255 0.0026893895 0.0027173173 -0.0043074368 0.0036681998 -0.0011903199 -0.0014547216 -0.0043752575 -0.0029235792 0.0047905473 0.0015617928 -0.004024175 0.0014282961 -0.0036040107 -0.0045375526 0.0019251588 0.0009961714 0.00065403705 0.0043920237 0.003066068 -0.0025591438 0.0013593544 0.001325149 0.0011386202 0.0042149564 -0.0035196445 -0.0011667979 0.0005761807 0.0032214357 -0.0002457111 0.0040204744 -0.0023608112 -0.0045362446 -0.0036150627 -0.0020646686 0.004814663 -0.002563655 -0.0025409507 0.0041891653 -0.0037823315 0.001010563 0.0028828275 -0.003757927 -0.00013812144 -0.001215288 0.002846287 -0.0022272647 -0.0032734738 0.0049530715 -0.002232531 0.003871344 -0.004269586 0.0034396215 -0.0016590167 -0.0039190813 -0.0006298429 -0.0012001245 -0.0009002282 -0.00064288627 -0.003323514 -0.0017790151 -0.0015616489 0.0038949936 0.0028990328 -0.00048138408 -0.0024419979 0.0025882917 -0.004401366 0.0007990272 0.0019854465 -0.0010123369 -0.00228191 -0.004219212 -0.004214137 0.0034989808 0.0017875364 -0.00010797187 0.0048730434 -0.00430133 0.0003041185 -0.00019616912 -0.0040797424 -0.0045292377 0.0035428293 -0.0018801641 -0.003994421 0.0040346864 -0.0032228243 -0.0015761158 0.0008352723 -0.0016209842 -0.004048612 -0.0020800761 -0.0045984914 0.00062596524 -0.0023328313 -0.00011326432 0.001334827 -0.0011818574 0.0044372706 0.0035335165 -0.00028020964 -0.00028180922 0.00042387407 0.0033678699 0.0045321416 -0.000986505 -0.0008011163 -0.0015376185 0.00015559775 -0.0032562085 -0.0008835757 -0.0043000947 0.0003247338 0.0007553706 0.0018980093 -0.0014814894 0.0029869447 -0.0035492287 0.004897788 0.0002779984 0.0012029526 0.0021838224 0.00010060588 0.0013477961 0.000797581 -0.0047851875 -0.0015843713 -0.0013120185 -0.0046431725 0.0017328649 0.002329486 -0.0010033335 0.0036945597 -0.0005905558 -0.00016080914 0.0029735635 -0.0042946124 -0.0033960957 0.0037145729 -0.0032376293 0.004304049 0.0027288054 -0.003993568 0.004165737 0.0032011822 -0.0033325166 -0.0042345193 -0.0044395956 0.0019289382 0.003200009 -0.0009259759 0.00056252547 -0.004168247 -0.0026115333
solitude 0.002403718 -0.004538326 -0.004691613 0.00052144803 -0.0042923135 -0.0035039196 0.002408142 0.0040553645 -0.003697048 0.004083288 0.00469678 0.0023634706 -0.0021971527 0.004883162 -0.0038774158 -0.0019593462 0.0009884225 -0.0037849438 -0.004922319 0.0013580061 0.004106179 -0.0026098362 -0.002127651 0.0018929825 0.00033595797 -0.0042820214 0.0032357092 -0.001635489 0.001719071 0.0015497319 0.0044715847 0.004396782 0.0036765267 -0.0041624624 0.0005428972 -0.00040653427 0.00046151195 0.0044313073 0.002347937 -0.0044992743 0.0048903143 -0.0004866738 0.00020834773 0.0024946863 -0.0030429913 -0.00018740981 0.0006602777 0.0034492877 0.0021809791 -0.00094581663 -0.0041730865 -0.0019326187 0.0043828227 -0.0047594416 0.004959456 -5.1834213e-05 -0.0005453649 0.004820805 0.004701639 0.0041526635 0.0045038345 -0.0049815173 0.0037632645 -0.004704627 -0.0038898403 -0.004408411 0.0010759545 0.0036545245 -0.0032091336 -0.0013311481 -0.0011944867 -0.0022463873 -0.00059258234 0.0024675122 0.0019313443 -0.0015768321 -0.0018486365 -0.0012016563 -0.0016853876 0.0019786938 0.004885554 0.003930373 -0.0038616073 -0.0031659938 -0.004621416 -0.002963409 0.0018133695 -0.002981978 0.0008558796 0.004400376 0.0017068327 0.0006591518 0.004464193 0.003252667 -0.00070110935 -0.0030542547 -0.00056889246 0.003636115 0.003729339 -0.002003642 0.004922507 0.0012058105 0.002596345 -0.0028593133 0.0021188455 0.0001152318 -0.0047262833 0.0025910195 -0.004515452 -0.0032664214 0.0013438701 0.004561358 -0.0010563183 0.0034527513 0.0025226932 0.002008943 -0.0031517583 0.0024471458 -0.00418578 -0.0022044438 0.0027329123 -0.003981952 0.0028942395 -0.0017998391 -3.6953593e-06 -0.0036588744 -0.0031866252 -0.001706952 0.0042311503 0.002656877 -0.004857381 -0.0032374593 0.0016748188 -0.004297395 0.0032978565 0.0031061831 -0.0047557643 0.0042443196 0.003835053 -0.0009766442 0.0009162996 -0.0028889687 0.0030916778 0.0038456554 0.0020469022 -0.0044206996 0.0024504226 -0.0015056354 -0.0011147952 0.0030415691 0.0009826852 0.0022593841 -0.0031259654 0.0025807624 -0.001832593 -0.00017757247 0.0031604676 0.002070237 0.0037458118 -0.0019093364 0.0017866427 0.0036254528 -0.0016205861 0.0028445292 -0.004729886 0.004419884 0.0019150933 0.0026744348 0.0022507121 0.0023278815 -0.0016949682 -0.0031089452 -0.0011223675 0.0006621319 -0.0014681651 -0.004196583 -0.0031887384 0.0041771946 0.004621462 0.0030130562 -0.0020501 0.00038113073 -0.0043428615 0.0033543431 0.00027543496 0.0037297125 -0.0026696853 -0.0013994187 0.0014816481 0.0017146757 -0.0032326956 -0.0036735253 0.0009932676 -0.0045161783 0.0029030999 0.0027513176 -0.0018246078 -0.0028904201 -0.0041341363 -0.0010501678
passed 0.0035035296 -0.00010971594 -0.0039894744 0.0044599324 -0.0042724162 0.002754841 0.003264469 0.00051309256 -0.0043587023 0.0031194373 -0.003931888 -0.0025147365 0.0048101414 -0.004150313 -0.0038242901 -0.0024831204 0.0017334244 0.00096934574 -0.0027829125 -0.0016774875 0.0043052994 0.0048482222 0.00495209 0.0005017724 0.0020408952 0.00066425896 0.000830876 0.0023888843 0.0010691087 0.00013140964 -0.0015608972 -0.0032625874 0.0040373006 -0.0029888025 0.001352185 -0.000418186 -0.0017754287 -0.0024898592 0.001587755 -0.0029568155 -0.0037543285 -0.0013503358 0.0023652643 0.0030245464 -0.00067446515 0.003638256 -0.003786185 -0.0024040588 -0.003922961 -0.0030055684 0.003695482 -0.0046412046 -0.0043006795 -0.0049092686 0.0046157185 -0.0013276972 0.00049284793 -0.003077197 -0.0013207683 5.5793054e-05 -0.001260547 -0.0036848665 -0.003078376 0.0012451736 -0.004810049 0.0005776201 -0.0009844564 0.0041671144 -0.00023384458 0.0031050511 -0.0035862513 -0.0038046981 0.0028240848 0.000489761 -0.0025115206 -0.0013180448 0.0044017 -0.0045935228 -0.0018837191 0.00050518394 -0.00012150936 0.0047597415 -0.0010284932 -0.0035152012 -0.0038550491 -0.004940224 -0.0039295736 -0.0030041412 -0.0029655828 -0.00070979854 -0.00025562476 -0.0023258773 0.0010842953 0.0019395774 0.004544147 -0.0022875695 0.0025442226 0.0036243906 -0.001876973 -0.0037047998 -0.0017006958 -0.003446801 0.0032546779 0.0046686805 0.004110584 -0.004289329 0.0025359197 0.0025695271 0.0027910552 -0.004185958 -1.3802221e-06 -0.0034436067 -0.004455308 0.0012159555 0.004968438 0.0032324726 -0.0035433369 0.0011221825 -0.001970571 0.0049457275 -0.0043981876 0.0049211886 -0.0032454776 -0.0035350148 0.00083426514 -0.00032792304 -0.004277815 -0.00032665313 -0.00020362245 -0.0031773152 0.0028480182 0.0016232504 0.00416341 0.0036860048 -0.0033442995 0.0024331543 0.0027892261 0.002828195 0.0025602093 -0.0024493462 0.0021511798 0.0006425227 1.8355655e-05 -0.0032247356 0.0007872884 0.0026367907 -0.004614525 0.0043050363 0.0014778286 -3.5924342e-05 -0.0016654389 0.00018815852 0.0030475212 0.0023734784 -0.0030311958 0.0039407243 -0.0003140966 -0.004050496 0.004449259 0.002586135 0.0018266685 0.0039426456 -0.0037855818 -0.002926245 -0.0009652589 -0.0020477457 -0.0007699449 -0.00029895836 -0.0042267446 0.0009897943 0.0012690882 -0.00043756058 0.002416625 0.00072864036 0.0030027116 -0.0010976909 0.004219 -0.00075042684 0.001538296 -0.0018908585 0.0030691805 0.0015634905 0.00023655148 0.004365227 -0.003920718 0.004885972 0.00041860007 -0.0011555613 -0.002027491 -0.0045630354 -0.0010771562 0.0013671321 0.0032682284 0.0044993134 -0.004361899 0.0045317044 -0.004365978 0.0018150341 0.0040251315 -0.0012938386
youth -0.003916861 -0.0041746716 0.0005535686 -0.00035697798 -0.004756771 0.0015457277 0.0011342795 0.0022383544 0.0022016629 0.0016504651 -0.004904444 0.0028623636 0.0021358472 -0.0038742058 -0.0010774462 0.00016531882 -0.0003147985 -0.00048794644 -0.0027666157 -1.0797616e-05 0.0022318275 -0.00037624245 0.00040995085 0.0010177117 -0.0019856025 -0.0039550522 0.0045696036 -0.004904167 -0.001275878 -0.00064646895 -0.0038158216 0.00089259166 0.0039814957 -0.00076019124 0.004026187 0.00015372765 -0.002869626 -0.0010080975 -0.00037876118 0.0031114644 0.0035386947 0.0030806672 -0.0029714745 -0.0034908962 0.0030521005 0.0012284882 0.0026644475 0.00019941773 0.0039518536 -0.004409748 0.004955578 -0.0041205813 -0.00085449504 0.0031418733 -0.0045987065 0.0021663005 -0.00348241 -0.0034221015 0.0011130583 0.0008645013 -0.001409178 0.003927888 -0.0034964501 0.00019971338 0.00434598 0.0010058066 -0.003422539 0.0018069907 -0.0025386258 0.00030428308 0.0014189116 0.0037784958 0.0036983835 -0.002435736 0.00479441 -0.0027424898 0.003813786 -0.003984011 -0.003936194 -0.0005589238 -0.004076005 -0.0017383555 -0.0003024505 3.996128e-05 -0.005033591 -0.0032575557 -0.0037200395 -0.00019434949 0.0025908013 -4.8220925e-05 0.005012638 -0.001903557 0.0040200176 0.0030521855 0.0041488158 5.855174e-05 -0.00024282435 0.00092796946 -0.004959382 0.004516974 -0.0012213474 0.0037803112 0.0010234936 0.0014322725 -0.00063065655 -0.00494615 0.00069488597 0.0014527031 -0.004905223 -0.0019630876 -0.0011871315 -0.0025664694 0.0020013924 0.0010525705 0.002175034 -0.003252521 -0.0029935779 0.0023213169 0.0033763794 0.0027374749 0.002393214 -0.0035750954 0.0040898244 -0.0035092912 -0.0038456186 0.0042788303 -0.0012797561 -0.004703285 -0.0015667796 0.0029787302 -0.0014690931 0.0024977957 2.303972e-05 0.0020252145 0.00058373786 -0.004641927 -0.0018548038 0.0043748855 0.0007451391 -0.0029735512 0.0035058241 0.00369595 0.0036119877 1.6067308e-05 -0.0045642904 -0.0017278465 0.0025453782 -0.0032432708 0.004860708 -0.004895038 -0.004046521 -0.0026708103 0.0030208048 -0.003841487 0.004286211 -0.0049168062 0.0017838211 0.0016613541 1.7753826e-05 0.004800027 0.0025633895 0.0001204598 0.0024094363 0.0031892092 0.0015053427 0.0047052614 -0.0006659204 -0.0041893907 -0.0022601539 -0.00072489586 -0.0036324605 -0.00077499956 0.0039706198 -0.0025038663 0.0025506734 0.0021839803 -0.00038147593 0.0005552719 0.002848914 -0.0033116036 0.0019479534 0.0044650356 -0.0017714802 -0.0038026455 -0.004582552 -0.0044773193 0.0019424601 0.0025602556 0.0035392144 -0.0007244785 0.00053009007 0.0015321383 -0.004954906 -0.0047078757 0.002320958 -0.004179273 -0.0015552104 -0.002194984 0.0029547338 -0.0017638283
desk 0.004988331 0.00027992143 -0.0025759058 -0.001818904 0.0006304936 -0.0026879294 0.003700185 0.004513365 0.0021463663 -0.0036749737 -0.002972454 2.5491277e-05 -0.00050914317 -0.0027641717 0.0039710966 0.003116763 -0.0020943747 0.0011915325 0.002565216 0.0012022033 0.0042841285 -0.000649777 -0.003265201 -0.00041944094 -0.004162841 0.0049242685 -0.004311199 -0.0007538861 -0.0014297337 0.0015749868 0.0024886576 -0.0041184975 -0.0022035558 0.00024531124 0.001993266 0.0025608658 -0.00069014257 -0.0003118979 -0.0039157984 0.0022680222 -0.0038279814 0.0016402099 -0.0017125114 -0.0039003012 0.0034492628 -0.00022850472 -0.004773625 -0.0046905074 0.00029841723 -0.0040865173 0.001872242 0.001734309 0.0016760646 -0.002802107 0.003994263 -0.0044943807 0.003727168 -0.00031440047 -0.0007402537 0.001981624 -0.0012449978 -0.0021956654 -0.0012067391 -0.003098025 -0.00017885756 -0.0026912412 0.0023007826 -0.00476202 -0.0021788941 -0.004580814 -0.004811322 -0.0003748681 -0.0040389416 -0.0028437949 0.0013889828 -0.00071625586 0.0015492217 0.0041297665 -0.004817942 0.0030389887 -0.003973287 0.0032672063 0.003730265 0.004290319 -0.003974632 0.0016744869 -0.0039184624 -0.00062317686 -0.002610904 -0.0042679776 0.0024677298 0.0022202253 -0.002032336 -0.0038839735 0.0017805167 -0.001960546 -0.0044324202 -0.002195526 -0.0010864901 0.004378185 -0.0032305638 0.0036650512 0.0030639211 -0.0024572166 -0.00088519795 -0.0012544973 0.0015628986 -0.0002213741 -0.0013858719 -0.004523542 0.0032148361 -0.0048083025 -0.004329197 0.00068734784 0.0014864889 -7.2822536e-07 0.00018411802 0.0012888112 0.00090205425 0.0037803187 -0.0017239082 -0.0036145987 -0.003940453 0.0039563864 0.00097353803 -0.002901064 0.003193684 0.0042246543 0.003969916 -0.0034126185 -0.0025734166 -0.0010008558 -0.0033097016 0.0023614776 0.0028274911 -0.0029953287 0.0035959347 -0.0038313747 0.003095429 -0.0023189955 0.0009803978 -0.0016373328 0.0016938075 0.0038585274 -0.00069523335 -0.0024919794 -0.0042828885 0.0018177273 0.0021152636 0.0033442525 -0.002142461 -0.004870143 0.0034092423 -0.002261601 0.0022040776 0.004026372 -0.0019697475 0.0008150018 -0.001795335 -0.0033102762 -0.0028400954 -6.553869e-05 -0.0037585287 -0.0009989808 -0.00124661 0.0033552123 0.00068580115 0.0029239617 0.0019038976 -0.0017603948 -0.00254958 0.0048292484 0.0035346076 -0.004525193 0.0026255199 0.004099479 0.004593819 -0.0040258006 -0.0010088667 0.0005452752 0.0014573463 -0.0008116039 -0.0023539641 0.0032333874 0.003470598 -0.00019555072 -0.002919199 -0.00218526 -0.0025720138 0.0021303536 0.00026356982 -0.0011780047 -0.0045433748 -0.00075086806 0.0032183137 0.0031665298 0.0021174261 -0.0014400157 0.0045267814 0.00029892172
thinking 0.0005927007 0.003091001 -0.0033169 0.0032629392 0.004901905 0.0018125301 0.0017357394 0.0021157581 -0.0009819957 -0.0040513156 0.0007410398 0.000430955 -0.00338938 0.0009860634 0.0027356185 -0.0035746042 0.0012729 0.0038992208 -0.004315759 0.0017471854 -0.0042789215 -0.0039842087 0.0035433013 -0.0038007575 -0.00068243383 -0.003970445 -0.0039249244 -0.0035711091 0.00018404891 0.00088654005 -0.00394512 -0.004024347 -0.0015740165 -0.00091415754 -0.0031012902 -0.002098468 0.0018231089 0.001517123 0.00328472 0.0021259545 -0.0004447683 0.0013920899 0.0045359386 0.00095065456 0.0009325823 0.0005590699 -0.0046266294 0.002669293 0.0025251524 3.460813e-05 0.0046316762 -0.002870008 0.0016481457 -0.0039176857 -0.004462411 0.0010004649 0.0023760854 0.0030542994 -0.0043594516 0.002181359 0.0012084281 0.002070663 -0.0003440443 0.0027592834 0.0036411262 -0.0041886745 -0.0049856827 0.0035178023 -0.00049071276 -0.004673075 -0.002071582 0.000572903 0.00423969 -0.0008565568 -0.000498528 -0.00366163 -0.0038293935 0.0007397398 -0.0002580053 -0.003841477 0.0004355695 -0.004486593 -0.0012683438 0.002131069 0.0005528476 0.0039114044 0.0032981255 -0.00057947263 0.0024789923 0.0030577364 0.004378275 0.0045459745 0.0024751506 0.0023172705 0.0036146408 -0.0007710248 -0.0028272436 0.004416949 0.00061618455 -0.0025300365 -0.00045363506 -0.002606242 0.0045588305 0.0016883122 0.0021199617 0.0032429844 0.0040833466 -0.0023696944 -0.0031842333 -0.0018672104 -0.00186419 -0.00474488 -0.00030561886 -0.0040520257 0.004860461 -0.0017122636 -0.0031740232 -0.0040787086 -0.0017890304 -0.0047831554 0.00038034 0.002722643 -0.0014336229 0.0038224077 -0.00093546655 -0.0036182953 -0.0015760165 -0.0015568514 -0.0035601056 -0.004864518 -0.0020463564 -0.0007751852 0.002472331 -0.0038103093 -0.0025013043 0.0006878843 -0.0008452756 0.0017261411 -0.00095723185 0.0021436852 0.003986073 -0.00397627 0.0018761173 0.0029893715 -0.00029087433 0.0033904656 -0.002717094 -0.0022665411 -0.0039144885 0.004733877 -0.004691665 -0.0016235759 -0.0002274949 -0.0024362684 0.0047142026 -0.0034325407 -0.0039982162 0.0046242075 -0.004147231 0.0048561282 -0.0020335878 0.0028397588 -0.00020769742 -0.0019999822 -0.0037631947 -0.0031282124 0.0034298121 0.0031761443 4.986489e-05 0.0032111288 0.0019234176 0.0019264405 0.0013399658 -0.0048574526 0.004637418 -0.004097505 -0.0015398813 0.0007230131 0.0026086306 -0.004591709 0.0008427564 0.0032106566 -0.0043998966 0.0048035933 -0.002610904 0.0047832443 -0.0032431125 0.0033065823 0.004694773 -0.004616102 0.00015986711 -0.0038461383 0.0040519848 0.0047757225 -0.0030258216 0.0004266694 -0.0010849646 -0.0039030393 0.00040833044 -0.004960665
sits 0.001320221 -0.0038469513 0.0028207381 0.0037930456 -0.0012583942 -0.0020251323 -0.0047944584 0.0024637578 0.0014501396 0.004378081 0.0016526899 -0.0014579425 0.0017883396 0.0043210965 0.004616029 0.003817921 -0.0042750337 -0.0037876149 0.0036246572 -0.0037530179 0.0016324987 0.003989449 -0.0015810851 0.0033576058 -0.0040625264 0.003237335 0.0027763082 0.0016564095 -0.00409194 0.0045904303 0.004112575 -0.00078272383 0.0020449958 0.0031909416 -0.0008882608 0.002764273 -0.0020134908 -0.00064681855 -0.00061395316 -0.002097319 -0.00035984803 -0.0038605237 0.0018209835 0.004529797 0.002411056 0.0031922453 -0.0023514547 0.002423306 -0.0033344866 -0.0024708 0.004953291 0.0031893773 -0.0024853868 -0.0030514298 0.0036198355 0.00136243 0.0032993504 -0.0033679784 -0.0005112655 -0.0004831417 -0.00011801633 0.001115809 -0.0033778017 0.0021828068 -0.0013841735 0.0041783443 -0.0005003199 0.00459186 -0.00043281552 0.0026046864 -0.0038185841 -0.0045611085 -0.00014783035 -0.0011221573 0.004997658 0.0022702871 -0.0027928255 0.0036667737 0.00026930196 -0.0047746086 0.0028622858 -0.001007841 -0.0047264798 0.004376037 0.0036166708 0.0042726994 0.00017428887 0.0038488528 0.0025986976 -0.0034819306 0.004669724 -0.0017548852 -0.004872441 0.004293826 -0.0026370634 0.004212847 -0.003921985 0.0046371757 -0.0029463677 0.0019880456 0.004871653 0.002111017 -0.0010531072 -0.002476618 -0.0048761433 0.0020763224 0.003728909 -0.0023487876 0.002960253 0.0034185636 -0.0045140446 0.0010278013 -0.003414941 -0.0021724831 0.00042301323 -0.0035300492 -0.002081464 -0.0038022273 -0.003522283 -0.0034823848 0.004945975 0.0042035505 -8.011486e-05 -0.0013190578 0.0031009682 0.00066700246 -0.004499973 -0.0035279505 0.0004955507 0.003949192 0.0015747937 0.004925398 0.0032551023 0.00015609346 0.0043019936 0.0045000375 0.004000703 0.0046690386 -0.004717531 0.001748446 -0.0039130864 -0.0035896043 -0.0042189285 0.0015915869 1.7307202e-05 -0.003152718 0.0027559402 0.003957631 0.0021461982 0.003917974 -0.0021360754 -0.0032048756 0.0019981682 -0.0014782862 -0.0036106326 0.0018237818 -0.001652976 -0.0026079195 0.001312552 0.0034515723 0.0031989925 6.254785e-05 0.004334677 0.0014563329 0.003289861 -0.00046771936 0.0010592223 0.0030981277 -0.004916497 0.0029375383 0.00065055984 0.0030468134 -0.00071549334 -0.001351399 -0.0027923228 -0.0014066141 -0.0013181629 -0.0025879766 0.00048240123 0.003983378 0.0025626959 -0.0038227942 -0.0037403374 -0.0014367771 0.0019629647 -0.0046553398 0.0030648743 0.0015666095 -0.0014012132 0.004601945 0.0040420955 0.00035704393 0.002404907 -0.004649652 -0.0043867202 -0.0014664194 0.004680391 0.0015880163 0.0028224422 -0.0033987488
countenance 0.0021564031 0.00023078936 -0.00047860155 -0.0016280756 0.0025194173 -0.0046249917 0.002592557 0.0028700926 -0.001227726 -0.00208302 -0.0037051837 -0.0031910434 -0.0025686102 0.001581522 -0.0023830603 -0.0006228208 -0.0044501605 -0.0017467452 -0.0003847187 -0.0040396424 0.0016338702 0.004827329 0.002198832 0.00088213227 -0.0024273312 -0.0005881759 0.0011093386 0.0008350112 0.004327893 -0.00048768474 0.0035258823 0.002872555 0.001524756 0.003630138 -0.0025270756 -0.001937989 0.0035406945 0.0042911517 0.0015722491 -0.0020595007 0.0038004047 0.0013646676 -0.000112134636 0.004428301 0.0022273555 0.001964435 -1.3824812e-05 -0.0044813943 -0.0015210671 0.0012480002 -0.0027664073 0.0035709618 0.0037462323 -0.0044716126 -0.0026692573 -0.002992829 -0.0003343544 -0.00088538416 -0.0010719539 -0.0010928843 0.0018073017 0.0047792415 -0.0022736802 -0.0041648215 0.0018278019 -0.0032465549 0.0033465778 0.0013611728 -0.003966438 -0.0038873604 -0.0046901875 0.0011659291 0.0014291606 0.0013004798 0.00014160425 0.0005592807 0.0015203973 -0.0007842018 -0.004087326 -0.00030953728 0.0018541699 -0.0013025894 -0.0011683686 -0.001067396 0.003593482 -0.0015324088 0.004725798 -0.0019471182 -0.0049913945 -0.0033180434 -0.0021627492 0.00066433713 0.0025501691 0.0010962776 0.0045845225 0.0005037519 0.0028035005 5.0816576e-05 -0.001061778 0.0030720248 0.000951147 0.004129788 -0.0041269194 -0.0044004302 -0.0002972767 -0.0009764987 -0.0011700387 -0.00026603523 -0.0025645 -0.004023522 0.0040958575 -0.0017242312 -0.0014173746 -0.0008658509 -0.00064881385 -0.0046173325 -0.0009025037 -0.0007362431 0.004308897 -0.0040365364 -0.0024130305 -0.0008578661 0.0014818691 -0.0030471787 -0.0027868606 -0.0039626635 0.0027205623 -0.00434681 -0.0016442616 9.443902e-05 0.0006748705 -0.004923185 0.0042875023 -0.0010281212 0.00015091828 -0.004350835 -0.0041467827 0.0017815671 0.0019290057 0.0014448258 0.0029077805 -0.0035216887 -0.00063389994 -0.0013604971 -0.00067591737 0.0022360268 0.00065805233 -0.0037136 0.0016033031 0.003105025 -0.0030097933 0.0015884205 -0.0021361322 0.0043803803 0.0019948455 0.000999856 -0.00046094542 -0.004543997 0.0043454464 -0.00084997126 0.0037192092 0.0018755132 -0.00411454 -0.0003269794 0.001379621 -0.0012937031 0.0049352823 -0.0024700593 -0.003657495 0.0019253913 -0.0018087686 -0.0034674674 0.0010075781 0.002656379 -0.002748134 -0.0021684074 -0.003643123 0.0007995437 -0.0023856547 0.0042298674 0.00033839708 0.0009776264 -0.0017208117 0.0036995912 -0.00031579274 -0.004070368 -0.0036364566 0.0001463914 0.003918647 0.001547857 -0.0025915161 -0.0033750336 -0.004943786 0.0019281402 -0.0047162594 0.0016211594 0.0009239235 -0.000489448 -0.0049651884 0.0029009315
occasionally 5.829369e-06 -0.004939124 -0.0038245595 0.0042720446 0.000978915 -0.0041791946 -0.0003514721 0.0027202982 -0.004668505 -0.0034095703 -0.00050032017 -0.004887436 0.00024175229 0.000982919 0.0042559537 0.00047629737 0.00064766174 0.0024809742 -0.00216184 0.0035337307 8.380005e-05 -0.00040934782 -0.004837427 0.00020483664 0.0033789505 0.0008632238 -0.0040603275 -0.0017157977 -0.0031202885 0.0029537806 -0.0031831097 0.002638515 -0.0025873762 -0.0034279607 -0.0038673065 0.0019955563 -0.0043145963 -0.0028958207 -0.003546409 -0.0021713288 -0.0020246585 0.00071721163 0.0032444426 -0.00063823204 -0.002634665 0.00074854185 0.002825211 -0.0027015426 -0.002612446 0.0026276633 0.0031946402 -0.003896796 0.004130224 -0.004930564 -0.003657327 -0.0029332591 0.00093012094 4.5899153e-05 0.0016755257 0.0035229514 0.0024076242 -0.0016425588 -0.0031777106 -0.0041639167 -0.00031536672 0.0048589925 -0.0038477806 0.001851924 0.0021134948 -0.0021465048 -0.0035627726 -0.002738644 -0.0024353468 -0.0034697955 0.0030446115 -0.0038237532 -0.0014775667 0.0021683855 -2.5210147e-05 -0.0038246857 -0.0023233858 0.0018030098 0.0011275228 -0.0009013169 -0.00042591387 0.0012702593 0.00071657967 -0.0013022837 0.002667718 -0.0038317048 0.0032228595 -0.0049092527 -0.0011027738 0.0033383786 -0.00171623 0.0033260176 0.0026847306 -0.0037400431 -0.00011264256 -0.0022581515 -0.004093447 -0.00044918113 0.003213353 0.0043012053 -0.0025456818 -0.0013444282 -0.0029971628 0.0006445016 0.0013011291 -0.0049427864 0.001153539 -0.004469731 0.00024349909 0.0023323102 -0.0026546142 0.000112500275 -0.0011113228 -0.0044186045 -0.0012454721 0.0021568306 -0.0043203696 -0.0028393664 -0.00025139868 0.0039472827 0.000704334 0.0049112686 -0.003887496 0.0045005796 -0.0024198166 -0.0032318966 -0.003955978 0.0010076598 -0.0014427569 0.0037491033 -0.00030219622 0.0013098324 0.0028745031 -0.00446248 -0.0011343799 -0.0024735082 -0.0043408256 0.001618052 0.0011623069 -0.0012083016 -0.00092563126 -0.0033802676 -0.0016453201 0.0006791542 0.0038318844 0.0034934627 -0.001729006 0.001776578 -0.001296288 -0.0024056456 -0.001932419 -0.0030678518 0.0017907269 -0.0038588657 -0.0037452327 -0.0021877466 0.0037638685 0.0009057911 0.0027203856 0.0040913806 -0.0031130547 -0.0022962173 0.003901138 0.0024615512 0.0022024543 0.0045381547 0.0043712673 -0.001332108 0.0004968164 0.002710917 0.004455468 0.0049626464 -0.0041962424 -0.002511158 0.002476691 0.0005130472 7.965459e-05 0.0038018182 0.0031279095 -0.0035761795 -0.001279955 -0.0041693705 0.003558635 0.0014315636 -0.0010495322 0.0009225553 0.0039306153 0.0040590516 0.0030704124 0.0015532856 0.0008207296 0.0040817657 0.00079701573 0.000111050285 -0.004774291 0.0011987493
fair -0.0042274306 0.0032360274 -0.002943793 -0.0008619322 0.00047421697 -0.0009434805 -0.004539743 0.0019916117 -0.0032733637 -0.004352331 0.0019674653 -0.00036008688 0.0032555768 -0.003518579 0.00036836765 -0.00035104083 0.0028963333 -0.0048700757 0.0029770872 -0.0045198076 -0.003893015 0.00033395345 -0.0013224416 -0.0019444189 -0.0026477857 0.002051965 -0.0046781693 0.00057592563 0.002091228 -0.00016354713 -0.00024042252 0.003596525 -0.004767062 -0.0045122555 0.0022135624 0.004382872 -0.0038870752 -0.0041604745 -0.00033712285 -0.0045382194 0.0010444084 0.004607056 -0.0030365705 -0.0033966096 0.0044835596 -0.00038866984 -0.001887233 -0.0013791412 -0.0043575712 -0.0022959819 -0.0020747588 0.00014871501 0.0003507219 0.0038238396 0.0034179287 -0.00077441195 -0.004984807 0.0013022927 -0.0030855497 0.0045716013 0.0018958078 -0.00052153977 0.0032991958 -0.001749028 -0.0018829547 -0.00017370813 0.004210243 0.0029937893 0.0007929691 0.0018879401 -0.0015056361 0.004611332 -0.0035406714 -0.00159974 -0.0026474209 0.0043642772 -0.0015554809 -0.0011875588 0.0035590902 -0.004827209 -0.0014710829 0.0014530895 -0.0031624215 0.0044038235 0.00056983816 -0.0026338687 0.002464362 0.0039910222 0.00046385996 0.0033816593 -0.0034178705 -0.001794833 0.0049597747 0.0028414547 0.00079961284 -0.0017497218 0.0021900067 0.0012673865 0.004191659 -3.8912467e-06 0.0042804065 -0.0029450848 -0.0038031854 -0.0007206603 0.0014851704 -0.0010036824 0.0029500602 -0.004201854 -0.004519009 0.0037729891 0.0031590294 -0.0020749741 -0.0020057568 -0.0017918039 -2.2898563e-05 0.0045171576 0.0004900692 -0.0010544637 -0.001720553 -0.0010669462 -0.0046134084 0.0034342338 -0.004502204 -0.0015498357 -0.003552117 0.004540474 0.0028711893 -0.00025768916 0.0019336424 -0.0012213656 0.0048840246 -0.0017923159 0.002427287 -0.0019199813 0.004771247 0.004757453 0.0030815871 -0.00016705967 -0.0008716293 -0.004363282 0.0046570385 -0.004224355 -0.003282599 0.0028060705 -0.0011101423 0.0039929436 -0.0039673243 0.0045881746 0.001115034 -0.004270559 0.0019829029 -0.0024969962 0.003201748 0.0032958032 -0.004404853 0.00326992 0.0026399624 0.0032644053 -0.0035280772 -0.003270666 -0.004420299 0.0026192726 -0.0020040104 0.0024015503 0.0023769508 0.0040348065 0.0011205749 -0.00054911355 0.00070291676 0.001512783 -0.004405197 -0.0029833035 -0.00047544998 0.0024221821 -8.2137e-05 -0.004822414 -0.00031210628 0.0035878986 0.0031561076 0.0017505253 -0.0023000329 -0.0018780096 -0.0010502406 -0.0029954521 -0.004309381 -0.00024284596 0.0009003613 0.0024225675 0.0018303242 0.004296749 -0.0033622032 0.0046516005 -0.0016807413 0.0004063904 -0.002103417 -0.0019987535 -0.0006957696 -0.0037834346 0.0044655534 0.0022383223
look -0.0010622998 0.0009861202 0.0038470107 -0.002836947 0.0019569255 0.00027412214 0.0014818033 -0.0010423793 -0.0049357046 0.002954005 -0.000719229 -0.0041702287 0.0003402734 -0.0030708557 0.0038087552 -0.0032036072 -0.00083904853 -0.0001830784 -0.0021358668 -0.0017621182 0.0036890993 0.0008348907 -0.00466227 -0.00021730585 -0.004737835 -0.001621126 0.0024714682 0.0018043573 -0.002959775 0.0006979386 0.0029007555 -0.003765697 -0.0016453486 -0.0012698938 -0.004478921 0.001116855 0.0033336077 0.0011931569 0.001169112 -0.00041007964 -0.00040576217 -0.0031155315 -0.00025409655 0.0032546485 0.0015676942 0.00023267971 0.0039256136 0.0013607056 -0.0036477365 0.003705474 0.0048368927 -0.00454887 0.0036656081 -0.0038017395 -0.00012068516 0.0023331079 -0.0028569512 -0.0039696265 -0.0037144395 -0.0049295654 -0.0033481566 0.004748724 0.0014856023 -0.0045658587 0.0041699256 0.003593695 0.003913318 0.004861864 -0.004393097 -0.0010554201 0.0009862767 0.0011741302 0.002495147 -0.0038365112 0.0024725075 0.0049951742 -0.00449177 0.0039239563 0.0015007849 -0.0020440896 -0.0007749258 -0.0042337035 -0.003868522 0.0028663205 -0.0016083166 0.004967721 -0.0040063364 -0.003495146 0.0030572892 0.003929679 0.0018913782 0.0036838548 0.0032805968 -0.0028755148 0.0044377977 -0.0031221095 -0.0014743495 -0.0030460765 0.0030560095 -0.002207585 0.0014757311 -0.0007616603 -0.00061370136 -0.0029995572 -0.0028972563 -0.0018204885 0.0001996228 0.0007894068 -0.0016817059 0.000951982 -0.0028567114 0.0049110046 -0.00037278366 -0.0035103583 -0.00093707856 0.0038961296 -0.0005660086 -0.002650666 -0.0040684803 -0.003002836 -0.0016170067 0.0039754244 -0.0036027785 0.00068888813 -2.957046e-05 0.001989342 -0.003999287 0.0039608916 -0.0014406077 0.0025619417 -0.0047939452 0.0026051328 -0.004218112 -0.0016409948 -0.00063548214 -0.0017473031 -0.00044234842 -0.0001072987 0.002175943 -0.0012036028 -0.0020283565 -0.0031361915 0.0041122697 0.002315275 0.004566632 0.002755312 -0.0023227902 0.004162047 -0.0034907372 0.0015224036 -0.0016136805 0.00011162154 0.0018546933 -0.0014355218 -0.0023251232 -0.00096091407 0.00032574523 0.0032481092 -0.0029294898 0.0024034937 -0.0018025002 -0.003989339 -0.0028025587 0.000921876 0.004388705 0.0039348453 0.004591129 0.0034375426 -0.0016222313 -0.001159927 0.004387799 0.0032543708 0.0029836537 0.0034167764 0.00081871275 0.0012053224 -0.004179568 0.003845454 0.0046819234 -0.0034943083 0.00059585326 0.0044256807 0.0017365582 0.003489201 0.003841246 -0.000870532 0.0044559618 0.0030397861 -0.0008898719 2.9387324e-05 0.004952322 0.002931424 -0.0033446418 -0.001780674 -0.0017026821 0.0015864163 0.00068955246 -0.0044173207 0.0010988167 0.0047095446
perplexed 0.0011900323 0.0021375134 0.0009429738 0.004050316 0.0044587078 0.0015426835 -0.0011946858 0.0018189956 -0.0038501236 0.004018791 -0.002003231 0.0049419175 -0.004784479 -0.0012789282 0.00442691 -0.0020455518 -0.000974978 0.002513422 0.0046347575 -0.0002265953 -0.0034084627 0.0049408637 -0.004767343 0.0005861449 0.0027869467 -0.003949916 -0.0028471833 -0.0045700492 -7.6082455e-05 0.002490436 -0.0041088094 -0.0015214337 0.0042110467 -0.0022534612 0.0015580916 0.0017948771 -0.001750677 -0.0026183862 0.0041512772 -0.0012584554 0.004467015 -0.0012000357 0.0015501179 0.0027727382 0.00036305122 0.0021830657 -0.0029990468 0.0041862996 -0.0007919898 -0.0021701993 0.0025633518 0.0049664616 -0.0028047103 0.00042836595 0.0021961532 -0.0013755707 0.00033545765 0.004436792 0.0038378753 -0.0032024041 -0.0016154874 0.00460131 -0.00014661413 -0.004786484 -0.00041727273 -0.0034169902 0.00047056432 0.00042580892 -0.0021981902 -0.0022798476 0.0043458273 0.0022591983 0.0013111784 0.00094136037 0.0041462244 -0.0024697029 0.003047282 -0.00051193795 -0.003872888 -0.0048556165 -0.0008440436 0.004057163 0.0010524079 -0.0044325804 0.000584142 -0.0017979075 -0.0020301698 0.0040605925 0.0029104487 0.0001630597 0.0012425543 0.00047278637 -0.0049523693 0.0015048184 0.0036241377 0.0020161937 0.0012147793 -0.0017916027 0.0011802063 -0.0038258953 0.0020762123 0.0011950743 -0.0002036447 -0.00033046817 0.0012949652 0.0010952554 0.0007571566 0.0045760623 0.0017380596 0.0006704938 -0.0014845947 -0.0030523005 -0.0046314998 -0.0016343512 0.0021757584 0.0037376087 0.0003055115 -0.0024379473 0.0017684433 -0.001970907 -0.0003903569 0.0044780863 0.004074984 -0.00022371628 -0.002957612 0.00185252 0.0048895516 0.0043198145 -0.0009689962 0.0035217847 0.0046078935 -0.0047556562 0.0044027134 -4.0623263e-07 -0.002633588 0.001868655 0.0044449586 -0.003685425 0.0033857375 -0.0032663953 -0.003911447 0.0027171143 -0.00230409 0.002385472 0.0036921336 0.004813164 0.0028360179 -0.004426026 0.0015813626 -0.0045288005 -0.00016969064 0.0048784357 -0.002563707 0.0020245486 -0.0029038445 -0.0040145786 0.0040134154 0.0016237831 0.0036887752 0.001489485 0.00060397666 0.0018470667 -0.0042131445 0.0032841715 -0.0022461482 0.0023094616 -0.0027183194 0.00051883684 0.0019461811 -0.0012140275 -0.0037740467 -0.003004401 -0.0049660634 0.004826752 -0.002165587 -0.00051084877 -0.004533276 -0.0022647942 -0.0024551305 0.0015299472 0.0028195328 0.0017600121 0.004883508 0.000959515 0.004950329 0.0038065684 0.0013963215 0.0010940689 -0.003727092 -0.0011879557 0.0028470862 -0.0040472643 0.0011331468 -0.0037832048 0.004846968 -3.923144e-05 0.0005322162 -0.0024303796 0.0030623279 -0.0036042794
attempts -0.0036816872 0.0033300987 -0.001727483 -0.0004572414 0.0027275921 0.0022511086 0.0031264531 0.0035382176 0.002836989 -0.004446639 0.0025957294 0.0045556305 -0.0020186498 0.0005432057 -0.0016641489 -0.0016814547 0.00436747 -0.00013472927 0.0017081973 -0.002836827 0.0028709234 -0.0017309946 -0.0024819819 0.0010716992 0.0048551797 -0.003076791 0.0017694215 -0.000522819 -0.003629544 -0.002168814 -0.004112954 0.0027888021 -0.0013706996 -0.0026522616 0.0004853532 0.0023681526 0.0047906507 -0.004887893 -0.00016235717 -0.00063438213 -0.0013871008 -0.00026434087 0.0040559713 -0.0009595022 0.0047522564 0.00018187612 -0.0005132619 0.0034234496 0.0035371145 0.00027652178 -0.00011892788 0.0031776743 -0.0018942469 0.0023323004 -2.204375e-05 -0.0030327246 0.003223907 -0.0020058695 0.001052081 -0.0034166889 0.0013394417 0.0027799048 0.002559762 -0.004019972 -0.0029917324 0.0035443956 0.0015678658 0.00057014456 -0.0031218557 -0.00068291486 -0.0046393164 0.00062445813 -0.0022393719 0.00038427522 0.002271253 0.001241915 -0.0035876138 0.00043005063 -0.0033976766 -0.0019307189 0.00096843886 0.003967826 -0.0033129624 0.0011924128 0.0040347176 0.004958313 0.0030642748 -0.0036718184 0.0019287545 0.004419729 0.002080659 0.0012972739 -0.0007960889 0.0018168109 0.0021231088 0.0044171526 -0.0019265328 -0.0043919412 0.0032555705 -0.0031313386 -0.00032808326 0.0007132064 -0.0006013087 -0.0020612972 0.00040591997 -0.0048640734 0.00071688363 -0.0020838773 -0.0028990118 0.0019168342 0.0006996421 0.001771795 0.00045939666 -0.004777776 0.0049771694 -0.0017964265 -0.0011089612 0.003518278 7.120271e-06 0.0014809822 0.0011034042 0.0012449353 0.0033860842 0.00474769 -0.00028087906 -0.0016942158 0.0022792143 -0.004189113 0.0042198934 0.001163974 0.0029706878 0.0014331643 -0.000699719 0.00047584038 -0.0024361871 0.0046011605 0.0024630725 0.0016989501 -0.0025334079 -0.004385486 0.003953191 0.0014212477 -0.002121584 -0.004341057 -0.0019566834 0.000695725 -0.0046262913 1.9527231e-05 0.0013534174 -0.004999241 -4.8932434e-05 -0.00306322 -0.0017875583 -0.00082233385 -0.0050351224 -0.0018193725 -0.003484921 -0.0036612097 0.00076778553 0.0011931263 0.0046873894 0.004412482 -0.0032010698 -0.0046182876 0.00393619 0.0027098572 0.003478343 -0.001478847 -0.0026871343 -0.0022566093 -0.0041935663 0.0029634852 -0.0017369299 0.0042937524 -0.0027996835 0.004834707 -0.0023056762 0.0043560993 -0.0027183187 -0.0037415815 0.0038360567 -0.004892264 -0.00444262 0.0024889712 -0.0048608454 0.0026748348 0.0018498639 -0.003493107 0.0016226519 0.0007262342 0.004352736 0.0014529183 -0.0025508995 -0.0011942628 0.0034635148 -0.0032997013 0.0047352803 -0.001654897 -0.002303403 -0.0022311723
